network unknown {
}
variable Age {
    type discrete [ 13 ] { 1, 10, 11, 12, 13, 2, 3, 4, 5, 6, 7, 8, 9 };
    property weight = None ;
}
variable Diabetes_binary {
    type discrete [ 2 ] { 0, 1 };
    property weight = None ;
}
variable DiffWalk {
    type discrete [ 2 ] { 0, 1 };
    property weight = None ;
}
variable GenHlth {
    type discrete [ 5 ] { 1, 2, 3, 4, 5 };
    property weight = None ;
}
variable HeartDiseaseorAttack {
    type discrete [ 2 ] { 0, 1 };
    property weight = None ;
}
variable HighBP {
    type discrete [ 2 ] { 0, 1 };
    property weight = None ;
}
variable HighChol {
    type discrete [ 2 ] { 0, 1 };
    property weight = None ;
}
variable HvyAlcoholConsump {
    type discrete [ 2 ] { 0, 1 };
    property weight = None ;
}
variable Income {
    type discrete [ 8 ] { 1, 2, 3, 4, 5, 6, 7, 8 };
    property weight = None ;
}
variable MetHlth_Class {
    type discrete [ 4 ] { 0, 1, 2, 3 };
    property weight = None ;
}
variable NEW_BMI_class {
    type discrete [ 5 ] { 0, 1, 2, 3, 4 };
    property weight = None ;
}
variable PhyHlth_Class {
    type discrete [ 4 ] { 0, 1, 2, 3 };
    property weight = None ;
}
variable PhysActivity {
    type discrete [ 2 ] { 0, 1 };
    property weight = None ;
}
variable Stroke {
    type discrete [ 2 ] { 0, 1 };
    property weight = None ;
}
probability ( Age | Diabetes_binary, HighBP, HighChol ) {
    ( 0, 0, 0 ) 0.048653163499686784, 0.07579870536646481, 0.04802672791814575, 0.027980789308832743, 0.03925662977657131, 0.06264355815410315, 0.08018375443725204, 0.09125078304447692, 0.09876801002296931, 0.10169137607016078, 0.11547295886406347, 0.1133848402589267, 0.09688870327834621;
    ( 0, 0, 1 ) 0.006349206349206349, 0.15925925925925927, 0.07089947089947089, 0.054497354497354496, 0.04656084656084656, 0.016931216931216932, 0.028042328042328042, 0.051322751322751325, 0.06031746031746032, 0.08412698412698413, 0.11481481481481481, 0.15185185185185185, 0.15502645502645504;
    ( 0, 1, 0 ) 0.011563876651982379, 0.13215859030837004, 0.10627753303964757, 0.07709251101321586, 0.11068281938325991, 0.012114537444933921, 0.023127753303964757, 0.03303964757709251, 0.0605726872246696, 0.0644273127753304, 0.10903083700440529, 0.125, 0.13491189427312775;
    ( 0, 1, 1 ) 0.0013630168105406633, 0.186278964107224, 0.1485688323489323, 0.11403907314856883, 0.10676965015901863, 0.00408905043162199, 0.010449795547478418, 0.021353930031803726, 0.023171285779191277, 0.04270786006360745, 0.07178555202180827, 0.11994547932757837, 0.1494775102226261;
    ( 1, 0, 0 ) 0.01015625, 0.12109375, 0.1078125, 0.08046875, 0.0984375, 0.01015625, 0.0359375, 0.0390625, 0.0578125, 0.08046875, 0.10234375, 0.109375, 0.146875;
    ( 1, 0, 1 ) 0.0015026296018031556, 0.16303531179564237, 0.13148009015777612, 0.07062359128474831, 0.05108940646130729, 0.003756574004507889, 0.011269722013523666, 0.025544703230653644, 0.0473328324567994, 0.06836964688204357, 0.1247182569496619, 0.13373403456048083, 0.16754320060105185;
    ( 1, 1, 0 ) 0.002235136343316942, 0.17746982565936523, 0.15824765310683953, 0.10996870809119356, 0.09566383549396514, 0.001788109074653554, 0.006258381761287439, 0.019222172552525705, 0.02682163611980331, 0.05364327223960662, 0.07867679928475638, 0.11935628073312472, 0.1506481895395619;
    ( 1, 1, 1 ) 0.0005296610169491525, 0.2078036723163842, 0.1640183615819209, 0.09904661016949153, 0.08880649717514125, 0.00211864406779661, 0.003707627118644068, 0.011122881355932203, 0.02065677966101695, 0.041490112994350285, 0.07962570621468927, 0.1161723163841808, 0.1649011299435028;

}
probability ( Diabetes_binary | DiffWalk, GenHlth ) {
    ( 0, 1 ) 0.8748953974895397, 0.12510460251046024;
    ( 0, 2 ) 0.7090941963478575, 0.29090580365214247;
    ( 0, 3 ) 0.4529252925292529, 0.547074707470747;
    ( 0, 4 ) 0.3020469296055916, 0.6979530703944083;
    ( 0, 5 ) 0.2819767441860465, 0.7180232558139535;
    ( 1, 1 ) 0.4716981132075472, 0.5283018867924528;
    ( 1, 2 ) 0.4505928853754941, 0.549407114624506;
    ( 1, 3 ) 0.3167660702451955, 0.6832339297548045;
    ( 1, 4 ) 0.2335728952772074, 0.7664271047227926;
    ( 1, 5 ) 0.19300911854103345, 0.8069908814589666;

}
probability ( DiffWalk | GenHlth, PhyHlth_Class ) {
    ( 1, 0 ) 0.9700338327694539, 0.029966167230546157;
    ( 1, 1 ) 0.9211956521739131, 0.07880434782608696;
    ( 1, 2 ) 0.8421052631578947, 0.15789473684210525;
    ( 1, 3 ) 0.7, 0.3;
    ( 2, 0 ) 0.9349376114081996, 0.06506238859180036;
    ( 2, 1 ) 0.9013107170393215, 0.09868928296067848;
    ( 2, 2 ) 0.725, 0.275;
    ( 2, 3 ) 0.5984848484848485, 0.4015151515151515;
    ( 3, 0 ) 0.8612099644128114, 0.1387900355871886;
    ( 3, 1 ) 0.744263862332696, 0.255736137667304;
    ( 3, 2 ) 0.532967032967033, 0.46703296703296704;
    ( 3, 3 ) 0.44274809160305345, 0.5572519083969466;
    ( 4, 0 ) 0.6996644295302014, 0.30033557046979864;
    ( 4, 1 ) 0.5453815261044177, 0.45461847389558235;
    ( 4, 2 ) 0.34581105169340465, 0.6541889483065954;
    ( 4, 3 ) 0.310598111227702, 0.689401888772298;
    ( 5, 0 ) 0.48148148148148145, 0.5185185185185185;
    ( 5, 1 ) 0.33, 0.67;
    ( 5, 2 ) 0.23628691983122363, 0.7637130801687764;
    ( 5, 3 ) 0.15246636771300448, 0.8475336322869955;

}
probability ( GenHlth | PhyHlth_Class ) {
    ( 0 ) 0.17138833664678596, 0.3717693836978131, 0.349155069582505, 0.09874088800530152, 0.008946322067594433;
    ( 1 ) 0.07074202229911572, 0.2493271818531334, 0.4021530180699731, 0.23933102652825836, 0.03844675124951941;
    ( 2 ) 0.014604150653343582, 0.09223674096848578, 0.2797847809377402, 0.431206764027671, 0.18216756341275941;
    ( 3 ) 0.015191796429927839, 0.05013292821876187, 0.14925939992404103, 0.36194454994303077, 0.4234713254842385;

}
probability ( HeartDiseaseorAttack | Age, GenHlth ) {
    ( 1, 1 ) 0.9866666666666667, 0.013333333333333334;
    ( 1, 2 ) 1.0, 0.0;
    ( 1, 3 ) 0.9753086419753086, 0.024691358024691357;
    ( 1, 4 ) 1.0, 0.0;
    ( 1, 5 ) 1.0, 0.0;
    ( 10, 1 ) 0.9676258992805755, 0.03237410071942446;
    ( 10, 2 ) 0.9212765957446809, 0.07872340425531915;
    ( 10, 3 ) 0.8451957295373665, 0.15480427046263345;
    ( 10, 4 ) 0.7043740573152338, 0.2956259426847662;
    ( 10, 5 ) 0.4745098039215686, 0.5254901960784314;
    ( 11, 1 ) 0.9045643153526971, 0.0954356846473029;
    ( 11, 2 ) 0.8728414442700158, 0.1271585557299843;
    ( 11, 3 ) 0.7898876404494382, 0.2101123595505618;
    ( 11, 4 ) 0.6446601941747573, 0.3553398058252427;
    ( 11, 5 ) 0.467005076142132, 0.5329949238578681;
    ( 12, 1 ) 0.9097744360902256, 0.09022556390977443;
    ( 12, 2 ) 0.8273381294964028, 0.17266187050359713;
    ( 12, 3 ) 0.7663865546218488, 0.23361344537815126;
    ( 12, 4 ) 0.6526946107784432, 0.3473053892215569;
    ( 12, 5 ) 0.45098039215686275, 0.5490196078431373;
    ( 13, 1 ) 0.8536585365853658, 0.14634146341463414;
    ( 13, 2 ) 0.8192771084337349, 0.18072289156626506;
    ( 13, 3 ) 0.7335640138408305, 0.2664359861591695;
    ( 13, 4 ) 0.6335227272727273, 0.3664772727272727;
    ( 13, 5 ) 0.45161290322580644, 0.5483870967741935;
    ( 2, 1 ) 1.0, 0.0;
    ( 2, 2 ) 1.0, 0.0;
    ( 2, 3 ) 0.96875, 0.03125;
    ( 2, 4 ) 0.9333333333333333, 0.06666666666666667;
    ( 2, 5 ) 1.0, 0.0;
    ( 3, 1 ) 1.0, 0.0;
    ( 3, 2 ) 0.9916666666666667, 0.008333333333333333;
    ( 3, 3 ) 0.9935064935064936, 0.006493506493506494;
    ( 3, 4 ) 0.9253731343283582, 0.07462686567164178;
    ( 3, 5 ) 1.0, 0.0;
    ( 4, 1 ) 0.9871794871794872, 0.01282051282051282;
    ( 4, 2 ) 0.9864406779661017, 0.013559322033898305;
    ( 4, 3 ) 0.9753086419753086, 0.024691358024691357;
    ( 4, 4 ) 0.9519230769230769, 0.04807692307692308;
    ( 4, 5 ) 0.8181818181818182, 0.18181818181818182;
    ( 5, 1 ) 0.994413407821229, 0.00558659217877095;
    ( 5, 2 ) 0.989247311827957, 0.010752688172043012;
    ( 5, 3 ) 0.9623824451410659, 0.03761755485893417;
    ( 5, 4 ) 0.9142857142857143, 0.08571428571428572;
    ( 5, 5 ) 0.8269230769230769, 0.17307692307692307;
    ( 6, 1 ) 0.9910714285714286, 0.008928571428571428;
    ( 6, 2 ) 0.9730392156862745, 0.02696078431372549;
    ( 6, 3 ) 0.955456570155902, 0.044543429844097995;
    ( 6, 4 ) 0.8571428571428571, 0.14285714285714285;
    ( 6, 5 ) 0.5957446808510638, 0.40425531914893614;
    ( 7, 1 ) 0.9644128113879004, 0.03558718861209965;
    ( 7, 2 ) 0.9709618874773139, 0.029038112522686024;
    ( 7, 3 ) 0.9300911854103343, 0.06990881458966565;
    ( 7, 4 ) 0.8469945355191257, 0.15300546448087432;
    ( 7, 5 ) 0.6855670103092784, 0.31443298969072164;
    ( 8, 1 ) 0.9870550161812298, 0.012944983818770227;
    ( 8, 2 ) 0.9570815450643777, 0.04291845493562232;
    ( 8, 3 ) 0.9046483909415971, 0.09535160905840286;
    ( 8, 4 ) 0.7904564315352697, 0.2095435684647303;
    ( 8, 5 ) 0.6936170212765957, 0.30638297872340425;
    ( 9, 1 ) 0.9611307420494699, 0.038869257950530034;
    ( 9, 2 ) 0.9396662387676509, 0.06033376123234917;
    ( 9, 3 ) 0.8776493256262042, 0.12235067437379576;
    ( 9, 4 ) 0.7703125, 0.2296875;
    ( 9, 5 ) 0.6043956043956044, 0.3956043956043956;

}
probability ( HighBP | Diabetes_binary, DiffWalk, GenHlth ) {
    ( 0, 0, 1 ) 0.8106169296987088, 0.18938307030129126;
    ( 0, 0, 2 ) 0.6805201427842937, 0.31947985721570626;
    ( 0, 0, 3 ) 0.5608108108108109, 0.4391891891891892;
    ( 0, 0, 4 ) 0.4462809917355372, 0.5537190082644629;
    ( 0, 0, 5 ) 0.44329896907216493, 0.5567010309278351;
    ( 0, 1, 1 ) 0.56, 0.44;
    ( 0, 1, 2 ) 0.45614035087719296, 0.543859649122807;
    ( 0, 1, 3 ) 0.4351464435146444, 0.5648535564853556;
    ( 0, 1, 4 ) 0.34285714285714286, 0.6571428571428571;
    ( 0, 1, 5 ) 0.37401574803149606, 0.6259842519685039;
    ( 1, 0, 1 ) 0.40468227424749165, 0.5953177257525084;
    ( 1, 0, 2 ) 0.3555003107520199, 0.6444996892479801;
    ( 1, 0, 3 ) 0.28594932543599866, 0.7140506745640013;
    ( 1, 0, 4 ) 0.24034334763948498, 0.759656652360515;
    ( 1, 0, 5 ) 0.22267206477732793, 0.7773279352226721;
    ( 1, 1, 1 ) 0.21428571428571427, 0.7857142857142857;
    ( 1, 1, 2 ) 0.21942446043165467, 0.7805755395683454;
    ( 1, 1, 3 ) 0.1716779825412221, 0.8283220174587779;
    ( 1, 1, 4 ) 0.16275954454119224, 0.8372404554588078;
    ( 1, 1, 5 ) 0.1553672316384181, 0.844632768361582;

}
probability ( HighChol | Diabetes_binary, GenHlth, HighBP ) {
    ( 0, 1, 0 ) 0.7893209518282066, 0.2106790481717934;
    ( 0, 1, 1 ) 0.5741626794258373, 0.4258373205741627;
    ( 0, 2, 0 ) 0.711864406779661, 0.288135593220339;
    ( 0, 2, 1 ) 0.48002904865649965, 0.5199709513435004;
    ( 0, 3, 0 ) 0.6744904261890056, 0.32550957381099443;
    ( 0, 3, 1 ) 0.43563636363636365, 0.5643636363636364;
    ( 0, 4, 0 ) 0.6455399061032864, 0.3544600938967136;
    ( 0, 4, 1 ) 0.38485804416403785, 0.6151419558359621;
    ( 0, 5, 0 ) 0.6376811594202898, 0.36231884057971014;
    ( 0, 5, 1 ) 0.3380281690140845, 0.6619718309859155;
    ( 1, 1, 0 ) 0.6165413533834586, 0.38345864661654133;
    ( 1, 1, 1 ) 0.3783783783783784, 0.6216216216216216;
    ( 1, 2, 0 ) 0.5545023696682464, 0.44549763033175355;
    ( 1, 2, 1 ) 0.32456140350877194, 0.6754385964912281;
    ( 1, 3, 0 ) 0.46367112810707456, 0.5363288718929254;
    ( 1, 3, 1 ) 0.296957671957672, 0.703042328042328;
    ( 1, 4, 0 ) 0.45768566493955093, 0.542314335060449;
    ( 1, 4, 1 ) 0.2647058823529412, 0.7352941176470589;
    ( 1, 5, 0 ) 0.4409090909090909, 0.5590909090909091;
    ( 1, 5, 1 ) 0.21671258034894397, 0.783287419651056;

}
probability ( HvyAlcoholConsump | Diabetes_binary, DiffWalk ) {
    ( 0, 0 ) 0.9335933268334958, 0.06640667316650417;
    ( 0, 1 ) 0.9569965870307168, 0.043003412969283276;
    ( 1, 0 ) 0.9749696601941747, 0.025030339805825242;
    ( 1, 1 ) 0.9839285714285714, 0.01607142857142857;

}
probability ( Income | DiffWalk, GenHlth ) {
    ( 0, 1 ) 0.0200836820083682, 0.016736401673640166, 0.03472803347280335, 0.04476987447698745, 0.07322175732217573, 0.12887029288702928, 0.1774058577405858, 0.50418410041841;
    ( 0, 2 ) 0.013017537515819924, 0.023323088049177362, 0.0347134333755198, 0.05966371361417465, 0.09491954438618695, 0.14789369011028747, 0.2003254384378955, 0.4261435545109383;
    ( 0, 3 ) 0.029522952295229523, 0.04428442844284428, 0.06858685868586858, 0.09360936093609361, 0.12313231323132313, 0.16273627362736273, 0.17803780378037803, 0.3000900090009001;
    ( 0, 4 ) 0.07588617074388418, 0.07438841737393909, 0.10334498252621069, 0.127309036445332, 0.1417873190214678, 0.14278582126809786, 0.15576635047428858, 0.17873190214677984;
    ( 0, 5 ) 0.13372093023255813, 0.125, 0.11046511627906977, 0.15406976744186046, 0.11918604651162791, 0.11627906976744186, 0.10465116279069768, 0.13662790697674418;
    ( 1, 1 ) 0.09433962264150944, 0.12264150943396226, 0.10377358490566038, 0.1792452830188679, 0.12264150943396226, 0.12264150943396226, 0.11320754716981132, 0.14150943396226415;
    ( 1, 2 ) 0.029644268774703556, 0.06521739130434782, 0.11067193675889328, 0.11264822134387352, 0.16798418972332016, 0.15612648221343872, 0.15217391304347827, 0.20553359683794467;
    ( 1, 3 ) 0.06560636182902585, 0.10934393638170974, 0.12856196156394964, 0.13518886679920478, 0.13717693836978131, 0.15573227302849568, 0.1318754141815772, 0.1365142478462558;
    ( 1, 4 ) 0.11447638603696099, 0.15349075975359344, 0.1309034907597536, 0.14219712525667352, 0.1375770020533881, 0.13347022587268995, 0.10164271047227925, 0.08624229979466119;
    ( 1, 5 ) 0.1717325227963526, 0.18465045592705168, 0.1702127659574468, 0.14437689969604864, 0.11474164133738601, 0.09042553191489362, 0.06306990881458967, 0.060790273556231005;

}
probability ( MetHlth_Class | DiffWalk, PhyHlth_Class ) {
    ( 0, 0 ) 0.8089374008769474, 0.14637559473831513, 0.02155051777218024, 0.02313648661255714;
    ( 0, 1 ) 0.620997375328084, 0.2900262467191601, 0.04540682414698163, 0.04356955380577428;
    ( 0, 2 ) 0.5191956124314442, 0.2340036563071298, 0.14076782449725778, 0.10603290676416818;
    ( 0, 3 ) 0.5261044176706827, 0.17670682730923695, 0.06961178045515395, 0.22757697456492637;
    ( 1, 0 ) 0.7716186252771619, 0.14560236511456023, 0.030303030303030304, 0.0524759793052476;
    ( 1, 1 ) 0.5064655172413793, 0.33836206896551724, 0.07614942528735633, 0.07902298850574713;
    ( 1, 2 ) 0.40981432360742703, 0.2917771883289125, 0.16976127320954906, 0.1286472148541114;
    ( 1, 3 ) 0.41304347826086957, 0.1823966065747614, 0.11611876988335101, 0.28844114528101805;

}
probability ( NEW_BMI_class | Diabetes_binary ) {
    ( 0 ) 0.01832460732984293, 0.5268324607329843, 0.4548429319371728, 0.0, 0.0;
    ( 1 ) 0.0, 0.0, 0.2362062404870624, 0.4208523592085236, 0.342941400304414;

}
probability ( PhyHlth_Class ) {
    table 0.5692191625801585, 0.2452847981893625, 0.06134477555639381, 0.12415126367408526 ;
}
probability ( PhysActivity | DiffWalk, GenHlth ) {
    ( 0, 1 ) 0.12719665271966527, 0.8728033472803347;
    ( 0, 2 ) 0.171397577291629, 0.828602422708371;
    ( 0, 3 ) 0.25922592259225924, 0.7407740774077408;
    ( 0, 4 ) 0.3504742885671493, 0.6495257114328508;
    ( 0, 5 ) 0.436046511627907, 0.563953488372093;
    ( 1, 1 ) 0.3113207547169811, 0.6886792452830188;
    ( 1, 2 ) 0.3774703557312253, 0.6225296442687747;
    ( 1, 3 ) 0.43605036447978796, 0.563949635520212;
    ( 1, 4 ) 0.5318275154004107, 0.4681724845995893;
    ( 1, 5 ) 0.6291793313069909, 0.3708206686930091;

}
probability ( Stroke | DiffWalk, HeartDiseaseorAttack, HighBP ) {
    ( 0, 0, 0 ) 0.9870790916209867, 0.012920908379013312;
    ( 0, 0, 1 ) 0.9588458618071374, 0.041154138192862566;
    ( 0, 1, 0 ) 0.9076517150395779, 0.09234828496042216;
    ( 0, 1, 1 ) 0.8671679197994987, 0.13283208020050125;
    ( 1, 0, 0 ) 0.9363992172211351, 0.06360078277886497;
    ( 1, 0, 1 ) 0.8972063037249284, 0.10279369627507164;
    ( 1, 1, 0 ) 0.8105726872246696, 0.1894273127753304;
    ( 1, 1, 1 ) 0.7269345238095238, 0.27306547619047616;

}
