network unknown {
}
variable Age {
    type discrete [ 13 ] { 1, 10, 11, 12, 13, 2, 3, 4, 5, 6, 7, 8, 9 };
    property weight = None ;
}
variable Diabetes_binary {
    type discrete [ 2 ] { 0, 1 };
    property weight = None ;
}
variable DiffWalk {
    type discrete [ 2 ] { 0, 1 };
    property weight = None ;
}
variable Education {
    type discrete [ 6 ] { 1, 2, 3, 4, 5, 6 };
    property weight = None ;
}
variable GenHlth {
    type discrete [ 5 ] { 1, 2, 3, 4, 5 };
    property weight = None ;
}
variable HeartDiseaseorAttack {
    type discrete [ 2 ] { 0, 1 };
    property weight = None ;
}
variable HighBP {
    type discrete [ 2 ] { 0, 1 };
    property weight = None ;
}
variable HighChol {
    type discrete [ 2 ] { 0, 1 };
    property weight = None ;
}
variable HvyAlcoholConsump {
    type discrete [ 2 ] { 0, 1 };
    property weight = None ;
}
variable Income {
    type discrete [ 8 ] { 1, 2, 3, 4, 5, 6, 7, 8 };
    property weight = None ;
}
variable MetHlth_Class {
    type discrete [ 4 ] { 0, 1, 2, 3 };
    property weight = None ;
}
variable NEW_BMI_class {
    type discrete [ 5 ] { 0, 1, 2, 3, 4 };
    property weight = None ;
}
variable Stroke {
    type discrete [ 2 ] { 0, 1 };
    property weight = None ;
}
probability ( Age | Diabetes_binary, HighBP, HighChol ) {
    ( 0, 0, 0 ) 0.050197054552997306, 0.07612528521053723, 0.046878241028832195, 0.030699025098527278, 0.03546981953951462, 0.06305745695913711, 0.08027380211574363, 0.09603816635552789, 0.09873470234391205, 0.10267579340385811, 0.11180253059531217, 0.11366936320265505, 0.09437875959344534;
    ( 0, 0, 1 ) 0.006607929515418502, 0.13876651982378854, 0.08700440528634361, 0.05011013215859031, 0.046255506607929514, 0.020374449339207047, 0.03248898678414097, 0.049008810572687224, 0.054515418502202644, 0.08370044052863436, 0.12169603524229075, 0.1486784140969163, 0.16079295154185022;
    ( 0, 1, 0 ) 0.01099537037037037, 0.1400462962962963, 0.10185185185185185, 0.08159722222222222, 0.08333333333333333, 0.019675925925925927, 0.023726851851851853, 0.041666666666666664, 0.050347222222222224, 0.06597222222222222, 0.10300925925925926, 0.13252314814814814, 0.14525462962962962;
    ( 0, 1, 1 ) 0.001366120218579235, 0.1935336976320583, 0.14344262295081966, 0.09790528233151184, 0.10336976320582877, 0.0018214936247723133, 0.01366120218579235, 0.022768670309653915, 0.026411657559198543, 0.042805100182149364, 0.07832422586520947, 0.12431693989071038, 0.15027322404371585;
    ( 1, 0, 0 ) 0.015698587127158554, 0.13343799058084774, 0.10989010989010989, 0.08084772370486656, 0.10125588697017268, 0.014913657770800628, 0.030612244897959183, 0.03767660910518053, 0.05337519623233909, 0.07535321821036106, 0.09183673469387756, 0.12323390894819466, 0.13186813186813187;
    ( 1, 0, 1 ) 0.0014326647564469914, 0.17908309455587393, 0.11461318051575932, 0.07664756446991404, 0.05873925501432665, 0.010744985673352435, 0.014326647564469915, 0.027936962750716332, 0.04154727793696275, 0.05659025787965616, 0.11461318051575932, 0.14613180515759314, 0.15759312320916904;
    ( 1, 1, 0 ) 0.0013386880856760374, 0.17893797411869702, 0.14859437751004015, 0.1106648817492191, 0.09504685408299866, 0.002677376171352075, 0.006247211066488175, 0.016956715751896476, 0.027219991075412762, 0.04685408299866131, 0.08478357875948238, 0.11735832217759928, 0.16331994645247658;
    ( 1, 1, 1 ) 0.0003486750348675035, 0.20502092050209206, 0.15289400278940027, 0.10059274755927476, 0.09292189679218968, 0.0015690376569037657, 0.0031380753138075313, 0.010634588563458856, 0.022315202231520222, 0.04218967921896792, 0.07740585774058577, 0.12430264993026499, 0.16666666666666666;

}
probability ( Diabetes_binary | HighBP, Income ) {
    ( 0, 1 ) 0.6189111747851003, 0.38108882521489973;
    ( 0, 2 ) 0.5161290322580645, 0.4838709677419355;
    ( 0, 3 ) 0.589041095890411, 0.410958904109589;
    ( 0, 4 ) 0.620845921450151, 0.37915407854984895;
    ( 0, 5 ) 0.6411332633788038, 0.3588667366211962;
    ( 0, 6 ) 0.6884272997032641, 0.3115727002967359;
    ( 0, 7 ) 0.7335722819593787, 0.26642771804062126;
    ( 0, 8 ) 0.8024655121808042, 0.19753448781919578;
    ( 1, 1 ) 0.24396782841823056, 0.7560321715817694;
    ( 1, 2 ) 0.20499479708636836, 0.7950052029136316;
    ( 1, 3 ) 0.25780553077609275, 0.7421944692239072;
    ( 1, 4 ) 0.2698650674662669, 0.7301349325337332;
    ( 1, 5 ) 0.3115646258503401, 0.6884353741496598;
    ( 1, 6 ) 0.33204633204633205, 0.667953667953668;
    ( 1, 7 ) 0.35841694537346713, 0.6415830546265329;
    ( 1, 8 ) 0.44815927873779116, 0.5518407212622088;

}
probability ( DiffWalk | GenHlth, Income ) {
    ( 1, 1 ) 0.9166666666666666, 0.08333333333333333;
    ( 1, 2 ) 0.75, 0.25;
    ( 1, 3 ) 0.9183673469387755, 0.08163265306122448;
    ( 1, 4 ) 0.916083916083916, 0.08391608391608392;
    ( 1, 5 ) 0.9510869565217391, 0.04891304347826087;
    ( 1, 6 ) 0.9583333333333334, 0.041666666666666664;
    ( 1, 7 ) 0.979296066252588, 0.020703933747412008;
    ( 1, 8 ) 0.9879421221864951, 0.012057877813504822;
    ( 2, 1 ) 0.8482142857142857, 0.15178571428571427;
    ( 2, 2 ) 0.7960526315789473, 0.20394736842105263;
    ( 2, 3 ) 0.7890295358649789, 0.2109704641350211;
    ( 2, 4 ) 0.8465909090909091, 0.1534090909090909;
    ( 2, 5 ) 0.8916083916083916, 0.10839160839160839;
    ( 2, 6 ) 0.9199134199134199, 0.08008658008658008;
    ( 2, 7 ) 0.9375542064180399, 0.062445793581960105;
    ( 2, 8 ) 0.9674728940783986, 0.03252710592160134;
    ( 3, 1 ) 0.636, 0.364;
    ( 3, 2 ) 0.6076923076923076, 0.3923076923076923;
    ( 3, 3 ) 0.6901669758812616, 0.3098330241187384;
    ( 3, 4 ) 0.7207334273624824, 0.27926657263751764;
    ( 3, 5 ) 0.7547806524184477, 0.2452193475815523;
    ( 3, 6 ) 0.788527397260274, 0.21147260273972604;
    ( 3, 7 ) 0.8457095709570958, 0.1542904290429043;
    ( 3, 8 ) 0.8880090497737556, 0.11199095022624435;
    ( 4, 1 ) 0.3983957219251337, 0.6016042780748663;
    ( 4, 2 ) 0.3438155136268344, 0.6561844863731656;
    ( 4, 3 ) 0.4626865671641791, 0.5373134328358209;
    ( 4, 4 ) 0.4962264150943396, 0.5037735849056604;
    ( 4, 5 ) 0.5329768270944741, 0.46702317290552586;
    ( 4, 6 ) 0.572972972972973, 0.42702702702702705;
    ( 4, 7 ) 0.5864978902953587, 0.41350210970464135;
    ( 4, 8 ) 0.6563706563706564, 0.3436293436293436;
    ( 5, 1 ) 0.19063545150501673, 0.8093645484949833;
    ( 5, 2 ) 0.1750841750841751, 0.8249158249158249;
    ( 5, 3 ) 0.21107266435986158, 0.7889273356401384;
    ( 5, 4 ) 0.22519083969465647, 0.7748091603053435;
    ( 5, 5 ) 0.24423963133640553, 0.7557603686635944;
    ( 5, 6 ) 0.2752808988764045, 0.7247191011235955;
    ( 5, 7 ) 0.2876712328767123, 0.7123287671232876;
    ( 5, 8 ) 0.375886524822695, 0.624113475177305;

}
probability ( Education ) {
    table 0.0012259524707657489, 0.02324594492644285, 0.04960392304790645, 0.279045643153527, 0.2818276122218031, 0.36505092417955487 ;
}
probability ( GenHlth | Diabetes_binary, HighBP, Income ) {
    ( 0, 0, 1 ) 0.18055555555555555, 0.2037037037037037, 0.3148148148148148, 0.18981481481481483, 0.1111111111111111;
    ( 0, 0, 2 ) 0.10576923076923077, 0.22115384615384615, 0.3557692307692308, 0.2548076923076923, 0.0625;
    ( 0, 0, 3 ) 0.19269102990033224, 0.2591362126245847, 0.30564784053156147, 0.16611295681063123, 0.07641196013289037;
    ( 0, 0, 4 ) 0.18491484184914841, 0.2798053527980535, 0.36739659367396593, 0.12652068126520682, 0.0413625304136253;
    ( 0, 0, 5 ) 0.18003273322422259, 0.37970540098199673, 0.3322422258592471, 0.088379705400982, 0.019639934533551555;
    ( 0, 0, 6 ) 0.2338362068965517, 0.4224137931034483, 0.2543103448275862, 0.07327586206896551, 0.016163793103448277;
    ( 0, 0, 7 ) 0.2785016286644951, 0.42996742671009774, 0.23778501628664495, 0.043973941368078175, 0.009771986970684038;
    ( 0, 0, 8 ) 0.34857351865398684, 0.44623262618873444, 0.17264081931236283, 0.02596927578639356, 0.006583760058522311;
    ( 0, 1, 1 ) 0.054945054945054944, 0.12637362637362637, 0.23076923076923078, 0.34615384615384615, 0.24175824175824176;
    ( 0, 1, 2 ) 0.04568527918781726, 0.14720812182741116, 0.350253807106599, 0.3096446700507614, 0.14720812182741116;
    ( 0, 1, 3 ) 0.04152249134948097, 0.18685121107266436, 0.3944636678200692, 0.23183391003460208, 0.1453287197231834;
    ( 0, 1, 4 ) 0.08611111111111111, 0.25277777777777777, 0.3472222222222222, 0.21388888888888888, 0.1;
    ( 0, 1, 5 ) 0.05895196506550218, 0.29694323144104806, 0.3777292576419214, 0.1965065502183406, 0.06986899563318777;
    ( 0, 1, 6 ) 0.09966777408637874, 0.34219269102990035, 0.3770764119601329, 0.132890365448505, 0.04817275747508306;
    ( 0, 1, 7 ) 0.13063763608087092, 0.38880248833592534, 0.33748055987558323, 0.1181959564541213, 0.024883359253499222;
    ( 0, 1, 8 ) 0.15758591785414922, 0.4559932942162615, 0.3000838222967309, 0.06705783738474434, 0.019279128248113998;
    ( 1, 0, 1 ) 0.007518796992481203, 0.09774436090225563, 0.2857142857142857, 0.39097744360902253, 0.21804511278195488;
    ( 1, 0, 2 ) 0.02564102564102564, 0.09743589743589744, 0.26666666666666666, 0.3487179487179487, 0.26153846153846155;
    ( 1, 0, 3 ) 0.06666666666666667, 0.1, 0.37142857142857144, 0.2761904761904762, 0.18571428571428572;
    ( 1, 0, 4 ) 0.03187250996015936, 0.13545816733067728, 0.3784860557768924, 0.3346613545816733, 0.11952191235059761;
    ( 1, 0, 5 ) 0.06140350877192982, 0.19005847953216373, 0.4152046783625731, 0.24561403508771928, 0.08771929824561403;
    ( 1, 0, 6 ) 0.05, 0.22380952380952382, 0.45476190476190476, 0.21428571428571427, 0.05714285714285714;
    ( 1, 0, 7 ) 0.042600896860986545, 0.2757847533632287, 0.4641255605381166, 0.1726457399103139, 0.04484304932735426;
    ( 1, 0, 8 ) 0.06092124814264487, 0.3476968796433878, 0.4323922734026746, 0.12332838038632987, 0.03566121842496285;
    ( 1, 1, 1 ) 0.01773049645390071, 0.05673758865248227, 0.18085106382978725, 0.38652482269503546, 0.35815602836879434;
    ( 1, 1, 2 ) 0.015706806282722512, 0.07591623036649214, 0.25523560209424084, 0.38612565445026176, 0.2670157068062827;
    ( 1, 1, 3 ) 0.016826923076923076, 0.10096153846153846, 0.30649038461538464, 0.35336538461538464, 0.22235576923076922;
    ( 1, 1, 4 ) 0.028747433264887063, 0.11498973305954825, 0.3470225872689938, 0.32546201232032856, 0.1837782340862423;
    ( 1, 1, 5 ) 0.025691699604743084, 0.1373517786561265, 0.366600790513834, 0.3290513833992095, 0.14130434782608695;
    ( 1, 1, 6 ) 0.03137902559867878, 0.1915772089182494, 0.4244426094137077, 0.2617671345995045, 0.09083402146985962;
    ( 1, 1, 7 ) 0.03301476976542137, 0.21894005212858383, 0.4309296264118158, 0.2319721980886186, 0.08514335360556038;
    ( 1, 1, 8 ) 0.04220558202859088, 0.27229407760381213, 0.4404356705241661, 0.1933287950987066, 0.051735874744724304;

}
probability ( HeartDiseaseorAttack | Age, GenHlth ) {
    ( 1, 1 ) 0.9863013698630136, 0.0136986301369863;
    ( 1, 2 ) 1.0, 0.0;
    ( 1, 3 ) 0.9861111111111112, 0.013888888888888888;
    ( 1, 4 ) 1.0, 0.0;
    ( 1, 5 ) 1.0, 0.0;
    ( 10, 1 ) 0.9436201780415431, 0.05637982195845697;
    ( 10, 2 ) 0.9071925754060325, 0.09280742459396751;
    ( 10, 3 ) 0.8221649484536082, 0.17783505154639176;
    ( 10, 4 ) 0.7526555386949925, 0.2473444613050076;
    ( 10, 5 ) 0.5134099616858238, 0.48659003831417624;
    ( 11, 1 ) 0.9134615384615384, 0.08653846153846154;
    ( 11, 2 ) 0.8860569715142429, 0.11394302848575712;
    ( 11, 3 ) 0.8002496878901373, 0.19975031210986266;
    ( 11, 4 ) 0.6633466135458167, 0.33665338645418325;
    ( 11, 5 ) 0.45893719806763283, 0.5410628019323671;
    ( 12, 1 ) 0.912751677852349, 0.087248322147651;
    ( 12, 2 ) 0.835, 0.165;
    ( 12, 3 ) 0.7821782178217822, 0.21782178217821782;
    ( 12, 4 ) 0.6813880126182965, 0.3186119873817035;
    ( 12, 5 ) 0.4936708860759494, 0.5063291139240507;
    ( 13, 1 ) 0.8898305084745762, 0.11016949152542373;
    ( 13, 2 ) 0.8288770053475936, 0.1711229946524064;
    ( 13, 3 ) 0.7158469945355191, 0.28415300546448086;
    ( 13, 4 ) 0.6133333333333333, 0.38666666666666666;
    ( 13, 5 ) 0.5149700598802395, 0.48502994011976047;
    ( 2, 1 ) 1.0, 0.0;
    ( 2, 2 ) 1.0, 0.0;
    ( 2, 3 ) 0.9826086956521739, 0.017391304347826087;
    ( 2, 4 ) 0.90625, 0.09375;
    ( 2, 5 ) 1.0, 0.0;
    ( 3, 1 ) 0.9924812030075187, 0.007518796992481203;
    ( 3, 2 ) 1.0, 0.0;
    ( 3, 3 ) 0.994413407821229, 0.00558659217877095;
    ( 3, 4 ) 0.9310344827586207, 0.06896551724137931;
    ( 3, 5 ) 0.8571428571428571, 0.14285714285714285;
    ( 4, 1 ) 0.9936708860759493, 0.006329113924050633;
    ( 4, 2 ) 0.9894366197183099, 0.01056338028169014;
    ( 4, 3 ) 0.9744525547445255, 0.025547445255474453;
    ( 4, 4 ) 0.9636363636363636, 0.03636363636363636;
    ( 4, 5 ) 0.7941176470588235, 0.20588235294117646;
    ( 5, 1 ) 1.0, 0.0;
    ( 5, 2 ) 0.993920972644377, 0.0060790273556231;
    ( 5, 3 ) 0.967741935483871, 0.03225806451612903;
    ( 5, 4 ) 0.920863309352518, 0.07913669064748201;
    ( 5, 5 ) 0.8923076923076924, 0.1076923076923077;
    ( 6, 1 ) 0.990909090909091, 0.00909090909090909;
    ( 6, 2 ) 0.9760191846522782, 0.023980815347721823;
    ( 6, 3 ) 0.9351620947630923, 0.06483790523690773;
    ( 6, 4 ) 0.8917748917748918, 0.10822510822510822;
    ( 6, 5 ) 0.6296296296296297, 0.37037037037037035;
    ( 7, 1 ) 0.9851851851851852, 0.014814814814814815;
    ( 7, 2 ) 0.9649122807017544, 0.03508771929824561;
    ( 7, 3 ) 0.9353796445880452, 0.06462035541195477;
    ( 7, 4 ) 0.841225626740947, 0.15877437325905291;
    ( 7, 5 ) 0.729064039408867, 0.270935960591133;
    ( 8, 1 ) 0.9841269841269841, 0.015873015873015872;
    ( 8, 2 ) 0.96, 0.04;
    ( 8, 3 ) 0.9121540312876053, 0.08784596871239471;
    ( 8, 4 ) 0.7973484848484849, 0.20265151515151514;
    ( 8, 5 ) 0.696113074204947, 0.303886925795053;
    ( 9, 1 ) 0.9676375404530745, 0.032362459546925564;
    ( 9, 2 ) 0.9516539440203562, 0.04834605597964377;
    ( 9, 3 ) 0.8705179282868526, 0.1294820717131474;
    ( 9, 4 ) 0.7656500802568218, 0.23434991974317818;
    ( 9, 5 ) 0.5759493670886076, 0.4240506329113924;

}
probability ( HighBP | Income ) {
    ( 1 ) 0.3187214611872146, 0.6812785388127854;
    ( 2 ) 0.29545454545454547, 0.7045454545454546;
    ( 3 ) 0.3131127450980392, 0.6868872549019608;
    ( 4 ) 0.3316633266533066, 0.6683366733466933;
    ( 5 ) 0.3933140734626496, 0.6066859265373504;
    ( 6 ) 0.42644732679531794, 0.5735526732046821;
    ( 7 ) 0.4826989619377163, 0.5173010380622838;
    ( 8 ) 0.5613774921733399, 0.43862250782666007;

}
probability ( HighChol | Diabetes_binary, GenHlth, HighBP ) {
    ( 0, 1, 0 ) 0.8029719317556412, 0.19702806824435884;
    ( 0, 1, 1 ) 0.5415676959619953, 0.4584323040380047;
    ( 0, 2, 0 ) 0.7261770244821092, 0.27382297551789075;
    ( 0, 2, 1 ) 0.4673668417104276, 0.5326331582895724;
    ( 0, 3, 0 ) 0.6763224181360201, 0.3236775818639798;
    ( 0, 3, 1 ) 0.4316981132075472, 0.5683018867924529;
    ( 0, 4, 0 ) 0.6094808126410836, 0.3905191873589165;
    ( 0, 4, 1 ) 0.37373737373737376, 0.6262626262626263;
    ( 0, 5, 0 ) 0.6716417910447762, 0.3283582089552239;
    ( 0, 5, 1 ) 0.33067729083665337, 0.6693227091633466;
    ( 1, 1, 0 ) 0.6, 0.4;
    ( 1, 1, 1 ) 0.40789473684210525, 0.5921052631578947;
    ( 1, 2, 0 ) 0.5356550580431177, 0.46434494195688225;
    ( 1, 2, 1 ) 0.3430099312452254, 0.6569900687547746;
    ( 1, 3, 0 ) 0.4689213893967093, 0.5310786106032906;
    ( 1, 3, 1 ) 0.2878684030157642, 0.7121315969842358;
    ( 1, 4, 0 ) 0.4211409395973154, 0.5788590604026845;
    ( 1, 4, 1 ) 0.25763440860215053, 0.7423655913978494;
    ( 1, 5, 0 ) 0.44129554655870445, 0.5587044534412956;
    ( 1, 5, 1 ) 0.2172096908939014, 0.7827903091060986;

}
probability ( HvyAlcoholConsump | Diabetes_binary ) {
    ( 0 ) 0.9385474860335196, 0.061452513966480445;
    ( 1 ) 0.9766131304592843, 0.023386869540715696;

}
probability ( Income | Education ) {
    ( 1 ) 0.23076923076923078, 0.19230769230769232, 0.11538461538461539, 0.11538461538461539, 0.11538461538461539, 0.07692307692307693, 0.038461538461538464, 0.11538461538461539;
    ( 2 ) 0.2718052738336714, 0.19066937119675456, 0.17647058823529413, 0.12981744421906694, 0.11764705882352941, 0.060851926977687626, 0.02231237322515213, 0.030425963488843813;
    ( 3 ) 0.17110266159695817, 0.17680608365019013, 0.1920152091254753, 0.1596958174904943, 0.12167300380228137, 0.08935361216730038, 0.04752851711026616, 0.04182509505703422;
    ( 4 ) 0.06505576208178439, 0.09361270699560663, 0.11236904359580939, 0.14109496451503886, 0.14988171679621493, 0.1743832375802636, 0.1365326123690436, 0.12706995606623858;
    ( 5 ) 0.04383469968211477, 0.0635770453404718, 0.07746361050694328, 0.1010540404885394, 0.1310021750041827, 0.16446377781495733, 0.1845407395014221, 0.23406391166136858;
    ( 6 ) 0.016533195556703694, 0.018729010591578405, 0.02738310514079049, 0.04159132007233273, 0.07284939292172565, 0.13174890209248255, 0.19310255747868768, 0.4980625161456988;

}
probability ( MetHlth_Class | DiffWalk, GenHlth ) {
    ( 0, 1 ) 0.8100358422939068, 0.15372361608920748, 0.019514137793707687, 0.016726403823178016;
    ( 0, 2 ) 0.7590626144269499, 0.1993775173928964, 0.020688392530208714, 0.020871475649945074;
    ( 0, 3 ) 0.7316136114160263, 0.1955726308086352, 0.03549213318697402, 0.03732162458836443;
    ( 0, 4 ) 0.621301775147929, 0.21203155818540434, 0.07051282051282051, 0.09615384615384616;
    ( 0, 5 ) 0.4671361502347418, 0.17136150234741784, 0.12441314553990611, 0.23708920187793428;
    ( 1, 1 ) 0.6588235294117647, 0.21176470588235294, 0.08235294117647059, 0.047058823529411764;
    ( 1, 2 ) 0.7100456621004566, 0.1917808219178082, 0.045662100456621, 0.05251141552511415;
    ( 1, 3 ) 0.6381082933516107, 0.2227553118574366, 0.0568882796435915, 0.0822481151473612;
    ( 1, 4 ) 0.5, 0.2533678756476684, 0.10880829015544041, 0.1378238341968912;
    ( 1, 5 ) 0.36279401282965074, 0.19957234497505347, 0.12188168210976479, 0.315751960085531;

}
probability ( NEW_BMI_class | Diabetes_binary ) {
    ( 0 ) 0.0194110406211533, 0.5214468326862987, 0.45914212669254806, 0.0, 0.0;
    ( 1 ) 0.0, 0.0, 0.23020569174415328, 0.4278200432046586, 0.3419742650511881;

}
probability ( Stroke | GenHlth, HeartDiseaseorAttack, HighBP ) {
    ( 1, 0, 0 ) 0.9963560645497137, 0.003643935450286309;
    ( 1, 0, 1 ) 0.95578231292517, 0.04421768707482993;
    ( 1, 1, 0 ) 0.9615384615384616, 0.038461538461538464;
    ( 1, 1, 1 ) 0.8688524590163934, 0.13114754098360656;
    ( 2, 0, 0 ) 0.989566866898514, 0.010433133101485931;
    ( 2, 0, 1 ) 0.9659574468085106, 0.03404255319148936;
    ( 2, 1, 0 ) 0.8947368421052632, 0.10526315789473684;
    ( 2, 1, 1 ) 0.8972602739726028, 0.10273972602739725;
    ( 3, 0, 0 ) 0.9813614262560778, 0.018638573743922204;
    ( 3, 0, 1 ) 0.9544419134396356, 0.04555808656036447;
    ( 3, 1, 0 ) 0.8551401869158879, 0.14485981308411214;
    ( 3, 1, 1 ) 0.8495212038303693, 0.15047879616963064;
    ( 4, 0, 0 ) 0.9501698754246886, 0.04983012457531144;
    ( 4, 0, 1 ) 0.908411214953271, 0.09158878504672897;
    ( 4, 1, 0 ) 0.8269230769230769, 0.17307692307692307;
    ( 4, 1, 1 ) 0.8112965340179717, 0.18870346598202825;
    ( 5, 0, 0 ) 0.8896797153024911, 0.1103202846975089;
    ( 5, 0, 1 ) 0.8665850673194615, 0.13341493268053856;
    ( 5, 1, 0 ) 0.84, 0.16;
    ( 5, 1, 1 ) 0.687797147385103, 0.312202852614897;

}
