network unknown {
}
variable Age {
    type discrete [ 13 ] { 1, 10, 11, 12, 13, 2, 3, 4, 5, 6, 7, 8, 9 };
    property weight = None ;
}
variable Diabetes_binary {
    type discrete [ 2 ] { 0, 1 };
    property weight = None ;
}
variable DiffWalk {
    type discrete [ 2 ] { 0, 1 };
    property weight = None ;
}
variable GenHlth {
    type discrete [ 5 ] { 1, 2, 3, 4, 5 };
    property weight = None ;
}
variable HeartDiseaseorAttack {
    type discrete [ 2 ] { 0, 1 };
    property weight = None ;
}
variable HighBP {
    type discrete [ 2 ] { 0, 1 };
    property weight = None ;
}
variable HighChol {
    type discrete [ 2 ] { 0, 1 };
    property weight = None ;
}
variable HvyAlcoholConsump {
    type discrete [ 2 ] { 0, 1 };
    property weight = None ;
}
variable Income {
    type discrete [ 8 ] { 1, 2, 3, 4, 5, 6, 7, 8 };
    property weight = None ;
}
variable MetHlth_Class {
    type discrete [ 4 ] { 0, 1, 2, 3 };
    property weight = None ;
}
variable NEW_BMI_class {
    type discrete [ 5 ] { 0, 1, 2, 3, 4 };
    property weight = None ;
}
variable PhyHlth_Class {
    type discrete [ 4 ] { 0, 1, 2, 3 };
    property weight = None ;
}
variable PhysActivity {
    type discrete [ 2 ] { 0, 1 };
    property weight = None ;
}
variable Stroke {
    type discrete [ 2 ] { 0, 1 };
    property weight = None ;
}
probability ( Age | Diabetes_binary, HighBP, HighChol ) {
    ( 0, 0, 0 ) 0.047036688617121354, 0.07557227971150832, 0.04687989965506428, 0.029789902790843526, 0.036375039197240513, 0.06545939165882722, 0.08301975540921919, 0.09548447789275635, 0.09775791784258388, 0.10324553151458138, 0.11437754782063343, 0.11006585136406397, 0.0949357165255566;
    ( 0, 0, 1 ) 0.009537337662337662, 0.1434659090909091, 0.0846185064935065, 0.04728084415584415, 0.045048701298701296, 0.018871753246753248, 0.030235389610389612, 0.045657467532467536, 0.060876623376623376, 0.08745941558441558, 0.12357954545454546, 0.14772727272727273, 0.15564123376623376;
    ( 0, 1, 0 ) 0.009919797382861967, 0.1416209371042634, 0.10595187842971718, 0.07935837906289574, 0.09371042634022794, 0.015829463908822287, 0.02469396369776277, 0.037146475306036306, 0.050232165470662726, 0.07197129590544533, 0.10341916420430561, 0.13127902068383285, 0.1348670325031659;
    ( 0, 1, 1 ) 0.0022286987827875877, 0.1849819989713698, 0.14366535230584604, 0.09960569175381451, 0.10492028115892336, 0.0037716440939482257, 0.010972055546031203, 0.019886850677181555, 0.029315960912052116, 0.043373907080404596, 0.0776615806617521, 0.12412137836447797, 0.15549459969141094;
    ( 1, 0, 0 ) 0.010831381733021077, 0.1364168618266979, 0.11124121779859485, 0.07201405152224824, 0.10450819672131148, 0.013466042154566744, 0.03044496487119438, 0.03864168618266979, 0.05269320843091335, 0.08167447306791568, 0.09748243559718969, 0.11446135831381733, 0.1361241217798595;
    ( 1, 0, 1 ) 0.0022179096201829776, 0.16911560853895205, 0.11311339062933186, 0.07429997227612975, 0.0598835597449404, 0.00748544496811755, 0.013307457721097865, 0.026060438037149986, 0.04713057942888827, 0.06265594677016911, 0.12032159689492654, 0.1447186027169393, 0.1596894926531744;
    ( 1, 1, 0 ) 0.0011828320378506252, 0.18587360594795538, 0.1507265968232511, 0.10966542750929369, 0.10307536329841163, 0.002872592091922947, 0.0055762081784386614, 0.01554579249746536, 0.02652923284893545, 0.04325785738425143, 0.08009462656302806, 0.11524163568773234, 0.16035822913146333;
    ( 1, 1, 1 ) 0.00045578851412944393, 0.20230498762859747, 0.156205235056648, 0.09936189608021878, 0.09252506836827712, 0.0012371402526370622, 0.0035160828232842817, 0.011394712853236098, 0.021812736033337676, 0.040109389243391066, 0.07859096236489126, 0.12299778617007423, 0.1694882146112775;

}
probability ( Diabetes_binary | NEW_BMI_class ) {
    ( 0 ) 1.0, 0.0;
    ( 1 ) 1.0, 0.0;
    ( 2 ) 0.665048791702856, 0.33495120829714403;
    ( 3 ) 0.0, 1.0;
    ( 4 ) 0.0, 1.0;

}
probability ( DiffWalk | Diabetes_binary, GenHlth ) {
    ( 0, 1 ) 0.9795775877116425, 0.02042241228835748;
    ( 0, 2 ) 0.9493036211699164, 0.050696378830083565;
    ( 0, 3 ) 0.8487755617268367, 0.15122443827316334;
    ( 0, 4 ) 0.5718838526912181, 0.4281161473087819;
    ( 0, 5 ) 0.29405940594059404, 0.7059405940594059;
    ( 1, 1 ) 0.8536853685368537, 0.14631463146314633;
    ( 1, 2 ) 0.8654110260937806, 0.13458897390621935;
    ( 1, 3 ) 0.7476026440741086, 0.25239735592589146;
    ( 1, 4 ) 0.4840885947046843, 0.5159114052953157;
    ( 1, 5 ) 0.20806277056277056, 0.7919372294372294;

}
probability ( GenHlth | Diabetes_binary ) {
    ( 0 ) 0.2027605733498496, 0.3811714740753849, 0.28037515483985137, 0.09994691205096443, 0.03574588568394974;
    ( 1 ) 0.03212127637018976, 0.1801123714618891, 0.37955404784621366, 0.2776069825788897, 0.13060532174281778;

}
probability ( HeartDiseaseorAttack | Age, GenHlth ) {
    ( 1, 1 ) 0.9895287958115183, 0.010471204188481676;
    ( 1, 2 ) 1.0, 0.0;
    ( 1, 3 ) 0.9896373056994818, 0.010362694300518135;
    ( 1, 4 ) 0.9838709677419355, 0.016129032258064516;
    ( 1, 5 ) 0.9, 0.1;
    ( 10, 1 ) 0.9491725768321513, 0.0508274231678487;
    ( 10, 2 ) 0.9096719216020451, 0.09032807839795484;
    ( 10, 3 ) 0.8241866579033849, 0.17581334209661517;
    ( 10, 4 ) 0.7197958026091889, 0.2802041973908111;
    ( 10, 5 ) 0.5390070921985816, 0.46099290780141844;
    ( 11, 1 ) 0.9348591549295775, 0.06514084507042253;
    ( 11, 2 ) 0.8779931584948689, 0.12200684150513112;
    ( 11, 3 ) 0.7921273772666961, 0.20787262273330384;
    ( 11, 4 ) 0.6600910470409712, 0.33990895295902884;
    ( 11, 5 ) 0.49530956848030017, 0.5046904315196998;
    ( 12, 1 ) 0.9047619047619048, 0.09523809523809523;
    ( 12, 2 ) 0.8499534016775396, 0.1500465983224604;
    ( 12, 3 ) 0.7637997432605905, 0.2362002567394095;
    ( 12, 4 ) 0.664841182913472, 0.33515881708652795;
    ( 12, 5 ) 0.5145118733509235, 0.48548812664907653;
    ( 13, 1 ) 0.8436578171091446, 0.15634218289085547;
    ( 13, 2 ) 0.8252336448598131, 0.17476635514018693;
    ( 13, 3 ) 0.7361842105263158, 0.2638157894736842;
    ( 13, 4 ) 0.6192946058091287, 0.38070539419087135;
    ( 13, 5 ) 0.45695364238410596, 0.543046357615894;
    ( 2, 1 ) 1.0, 0.0;
    ( 2, 2 ) 1.0, 0.0;
    ( 2, 3 ) 0.9811320754716981, 0.018867924528301886;
    ( 2, 4 ) 0.9512195121951219, 0.04878048780487805;
    ( 2, 5 ) 1.0, 0.0;
    ( 3, 1 ) 0.9970760233918129, 0.0029239766081871343;
    ( 3, 2 ) 0.9919871794871795, 0.008012820512820512;
    ( 3, 3 ) 0.9844789356984479, 0.015521064301552107;
    ( 3, 4 ) 0.9289940828402367, 0.07100591715976332;
    ( 3, 5 ) 0.9047619047619048, 0.09523809523809523;
    ( 4, 1 ) 0.9900249376558603, 0.00997506234413965;
    ( 4, 2 ) 0.9939024390243902, 0.006097560975609756;
    ( 4, 3 ) 0.9817905918057663, 0.018209408194233688;
    ( 4, 4 ) 0.9477611940298507, 0.05223880597014925;
    ( 4, 5 ) 0.85, 0.15;
    ( 5, 1 ) 0.9959183673469387, 0.004081632653061225;
    ( 5, 2 ) 0.9922222222222222, 0.0077777777777777776;
    ( 5, 3 ) 0.9629629629629629, 0.037037037037037035;
    ( 5, 4 ) 0.9168765743073047, 0.08312342569269521;
    ( 5, 5 ) 0.8367346938775511, 0.16326530612244897;
    ( 6, 1 ) 0.9830795262267343, 0.01692047377326565;
    ( 6, 2 ) 0.9831460674157303, 0.016853932584269662;
    ( 6, 3 ) 0.9462738301559792, 0.053726169844020795;
    ( 6, 4 ) 0.8777777777777778, 0.12222222222222222;
    ( 6, 5 ) 0.677536231884058, 0.322463768115942;
    ( 7, 1 ) 0.9801418439716312, 0.019858156028368795;
    ( 7, 2 ) 0.9709489993544222, 0.029051000645577793;
    ( 7, 3 ) 0.9263657957244655, 0.07363420427553444;
    ( 7, 4 ) 0.8380855397148677, 0.16191446028513237;
    ( 7, 5 ) 0.7161410018552876, 0.28385899814471244;
    ( 8, 1 ) 0.9816031537450722, 0.018396846254927726;
    ( 8, 2 ) 0.9538043478260869, 0.04619565217391304;
    ( 8, 3 ) 0.9090501792114696, 0.09094982078853046;
    ( 8, 4 ) 0.8106169296987088, 0.18938307030129126;
    ( 8, 5 ) 0.6680272108843538, 0.33197278911564626;
    ( 9, 1 ) 0.9730077120822622, 0.02699228791773779;
    ( 9, 2 ) 0.9430076628352491, 0.05699233716475096;
    ( 9, 3 ) 0.8705062362435804, 0.12949376375641966;
    ( 9, 4 ) 0.757192174913694, 0.2428078250863061;
    ( 9, 5 ) 0.5857687420584498, 0.4142312579415502;

}
probability ( HighBP | Diabetes_binary, DiffWalk, GenHlth ) {
    ( 0, 0, 1 ) 0.8112972202423379, 0.18870277975766214;
    ( 0, 0, 2 ) 0.679773082942097, 0.32022691705790296;
    ( 0, 0, 3 ) 0.5626115407495539, 0.43738845925044617;
    ( 0, 0, 4 ) 0.45944272445820433, 0.5405572755417957;
    ( 0, 0, 5 ) 0.4444444444444444, 0.5555555555555556;
    ( 0, 1, 1 ) 0.6068376068376068, 0.39316239316239315;
    ( 0, 1, 2 ) 0.4816849816849817, 0.5183150183150184;
    ( 0, 1, 3 ) 0.4073455759599332, 0.5926544240400667;
    ( 0, 1, 4 ) 0.37138130686517784, 0.6286186931348222;
    ( 0, 1, 5 ) 0.3548387096774194, 0.6451612903225806;
    ( 1, 0, 1 ) 0.38273195876288657, 0.6172680412371134;
    ( 1, 0, 2 ) 0.33915211970074816, 0.6608478802992519;
    ( 1, 0, 3 ) 0.28941469489414695, 0.710585305105853;
    ( 1, 0, 4 ) 0.22718906126742044, 0.7728109387325796;
    ( 1, 0, 5 ) 0.19635890767230169, 0.8036410923276983;
    ( 1, 1, 1 ) 0.21804511278195488, 0.7819548872180451;
    ( 1, 1, 2 ) 0.21574344023323616, 0.7842565597667639;
    ( 1, 1, 3 ) 0.1932866101069716, 0.8067133898930284;
    ( 1, 1, 4 ) 0.17863311127559833, 0.8213668887244017;
    ( 1, 1, 5 ) 0.1592073795695251, 0.8407926204304749;

}
probability ( HighChol | Diabetes_binary, GenHlth, HighBP ) {
    ( 0, 1, 0 ) 0.7977941176470589, 0.20220588235294118;
    ( 0, 1, 1 ) 0.5556561085972851, 0.4443438914027149;
    ( 0, 2, 0 ) 0.7193955358380701, 0.28060446416192986;
    ( 0, 2, 1 ) 0.47258926061287604, 0.527410739387124;
    ( 0, 3, 0 ) 0.6771247951299462, 0.32287520487005383;
    ( 0, 3, 1 ) 0.43577102163790743, 0.5642289783620926;
    ( 0, 4, 0 ) 0.6221662468513854, 0.3778337531486146;
    ( 0, 4, 1 ) 0.3808940600122474, 0.6191059399877527;
    ( 0, 5, 0 ) 0.6363636363636364, 0.36363636363636365;
    ( 0, 5, 1 ) 0.368, 0.632;
    ( 1, 1, 0 ) 0.6104294478527608, 0.3895705521472393;
    ( 1, 1, 1 ) 0.3704974271012007, 0.6295025728987993;
    ( 1, 2, 0 ) 0.5273722627737226, 0.4726277372262774;
    ( 1, 2, 1 ) 0.33941500144801623, 0.6605849985519838;
    ( 1, 3, 0 ) 0.47787921348314605, 0.5221207865168539;
    ( 1, 3, 1 ) 0.29013049537564933, 0.7098695046243507;
    ( 1, 4, 0 ) 0.44962216624685136, 0.5503778337531486;
    ( 1, 4, 1 ) 0.25366943203573705, 0.7463305679642629;
    ( 1, 5, 0 ) 0.44570502431118314, 0.5542949756888168;
    ( 1, 5, 1 ) 0.2111075024358558, 0.7888924975641443;

}
probability ( HvyAlcoholConsump | Diabetes_binary, DiffWalk ) {
    ( 0, 0 ) 0.9353138280483818, 0.06468617195161817;
    ( 0, 1 ) 0.9542690985989956, 0.04573090140100449;
    ( 1, 0 ) 0.9731294620270954, 0.026870537972904604;
    ( 1, 1 ) 0.9815413891531874, 0.018458610846812558;

}
probability ( Income | DiffWalk, GenHlth ) {
    ( 0, 1 ) 0.019254852849092046, 0.017376330619912336, 0.03490920475892298, 0.04978083907326237, 0.07075767063243582, 0.12382592360676269, 0.1759549154664997, 0.5081402629931121;
    ( 0, 2 ) 0.014280833618038948, 0.02193372053296891, 0.03669285958319098, 0.05876323881106935, 0.09436282883498463, 0.15128117526477622, 0.19672019132217286, 0.4259651520327981;
    ( 0, 3 ) 0.03246577199403552, 0.04080249423885048, 0.06832045546970313, 0.0923139487596584, 0.1189507930052867, 0.170394469296462, 0.18218788125254168, 0.2945641859834621;
    ( 0, 4 ) 0.07456626061277224, 0.08342561830933924, 0.10834256183093392, 0.1258767072720561, 0.13824289405684753, 0.14673311184939092, 0.13732004429678848, 0.18549280177187155;
    ( 0, 5 ) 0.10881801125703565, 0.1425891181988743, 0.1303939962476548, 0.14634146341463414, 0.12570356472795496, 0.12195121951219512, 0.1022514071294559, 0.12195121951219512;
    ( 1, 1 ) 0.084, 0.116, 0.104, 0.152, 0.116, 0.152, 0.12, 0.156;
    ( 1, 2 ) 0.04301948051948052, 0.07305194805194805, 0.10957792207792208, 0.1266233766233766, 0.14204545454545456, 0.15503246753246752, 0.16396103896103897, 0.18668831168831168;
    ( 1, 3 ) 0.07035047326682016, 0.10514198004604758, 0.12356101304681504, 0.1294448708109491, 0.14172422614479407, 0.16091071885392683, 0.1289332310053722, 0.139933486825275;
    ( 1, 4 ) 0.1168757126567845, 0.15450399087799316, 0.137020144431775, 0.13740022805017105, 0.13264918282022045, 0.12808817939946787, 0.10205245153933866, 0.09141011022424933;
    ( 1, 5 ) 0.15714285714285714, 0.17857142857142858, 0.15906593406593406, 0.1447802197802198, 0.11950549450549451, 0.09917582417582417, 0.07554945054945054, 0.06620879120879121;

}
probability ( MetHlth_Class | Age, PhyHlth_Class ) {
    ( 1, 0 ) 0.6081081081081081, 0.2953667953667954, 0.055984555984555984, 0.04054054054054054;
    ( 1, 1 ) 0.36363636363636365, 0.4292929292929293, 0.12626262626262627, 0.08080808080808081;
    ( 1, 2 ) 0.41379310344827586, 0.13793103448275862, 0.1724137931034483, 0.27586206896551724;
    ( 1, 3 ) 0.5238095238095238, 0.19047619047619047, 0.09523809523809523, 0.19047619047619047;
    ( 10, 0 ) 0.8488515176374077, 0.1179245283018868, 0.014150943396226415, 0.01907301066447908;
    ( 10, 1 ) 0.6506082725060828, 0.2710462287104623, 0.03844282238442823, 0.03990267639902676;
    ( 10, 2 ) 0.5, 0.2674825174825175, 0.12762237762237763, 0.1048951048951049;
    ( 10, 3 ) 0.5004163197335554, 0.17735220649458786, 0.08825978351373855, 0.23397169025811823;
    ( 11, 0 ) 0.8731587561374795, 0.09710856519367157, 0.013638843426077468, 0.01609383524277141;
    ( 11, 1 ) 0.7002652519893899, 0.23209549071618038, 0.035145888594164454, 0.03249336870026525;
    ( 11, 2 ) 0.5567010309278351, 0.25, 0.12886597938144329, 0.06443298969072164;
    ( 11, 3 ) 0.5825688073394495, 0.16055045871559634, 0.0676605504587156, 0.18922018348623854;
    ( 12, 0 ) 0.8912520064205457, 0.08065810593900481, 0.012841091492776886, 0.015248796147672551;
    ( 12, 1 ) 0.7306397306397306, 0.2053872053872054, 0.030303030303030304, 0.03367003367003367;
    ( 12, 2 ) 0.5636363636363636, 0.2690909090909091, 0.09454545454545454, 0.07272727272727272;
    ( 12, 3 ) 0.5873544093178037, 0.17470881863560733, 0.07653910149750416, 0.16139767054908485;
    ( 13, 0 ) 0.8976801988400994, 0.07787903893951947, 0.011184755592377795, 0.013256006628003313;
    ( 13, 1 ) 0.7319587628865979, 0.21237113402061855, 0.030927835051546393, 0.024742268041237112;
    ( 13, 2 ) 0.6726618705035972, 0.19784172661870503, 0.0683453237410072, 0.06115107913669065;
    ( 13, 3 ) 0.7046783625730995, 0.15935672514619884, 0.04239766081871345, 0.0935672514619883;
    ( 2, 0 ) 0.6545454545454545, 0.2623376623376623, 0.053246753246753244, 0.02987012987012987;
    ( 2, 1 ) 0.4197952218430034, 0.42662116040955633, 0.06143344709897611, 0.09215017064846416;
    ( 2, 2 ) 0.43478260869565216, 0.43478260869565216, 0.08695652173913043, 0.043478260869565216;
    ( 2, 3 ) 0.22916666666666666, 0.3333333333333333, 0.125, 0.3125;
    ( 3, 0 ) 0.6815165876777252, 0.24265402843601896, 0.03886255924170616, 0.03696682464454976;
    ( 3, 1 ) 0.47737556561085975, 0.38009049773755654, 0.07918552036199095, 0.06334841628959276;
    ( 3, 2 ) 0.2549019607843137, 0.37254901960784315, 0.21568627450980393, 0.1568627450980392;
    ( 3, 3 ) 0.3375, 0.1875, 0.15, 0.325;
    ( 4, 0 ) 0.6806136680613668, 0.2412831241283124, 0.043235704323570434, 0.03486750348675035;
    ( 4, 1 ) 0.48353552859618715, 0.37261698440207974, 0.06932409012131716, 0.07452339688041594;
    ( 4, 2 ) 0.27710843373493976, 0.24096385542168675, 0.1927710843373494, 0.2891566265060241;
    ( 4, 3 ) 0.2537313432835821, 0.20149253731343283, 0.11940298507462686, 0.4253731343283582;
    ( 5, 0 ) 0.701840490797546, 0.23006134969325154, 0.03987730061349693, 0.02822085889570552;
    ( 5, 1 ) 0.47522236340533675, 0.36721728081321475, 0.07115628970775095, 0.08640406607369759;
    ( 5, 2 ) 0.32051282051282054, 0.23717948717948717, 0.21153846153846154, 0.23076923076923078;
    ( 5, 3 ) 0.31555555555555553, 0.13333333333333333, 0.1288888888888889, 0.4222222222222222;
    ( 6, 0 ) 0.7411019015114578, 0.20136518771331058, 0.025841053144807412, 0.03169185763042418;
    ( 6, 1 ) 0.48066875653082547, 0.361546499477534, 0.08359456635318704, 0.0741901776384535;
    ( 6, 2 ) 0.31970260223048325, 0.29739776951672864, 0.15613382899628253, 0.22676579925650558;
    ( 6, 3 ) 0.2986425339366516, 0.15384615384615385, 0.1493212669683258, 0.39819004524886875;
    ( 7, 0 ) 0.7613598115112756, 0.18377650622685965, 0.023897677549646584, 0.03096600471221811;
    ( 7, 1 ) 0.5198204936424832, 0.34554973821989526, 0.06806282722513089, 0.06656694091249066;
    ( 7, 2 ) 0.31871345029239767, 0.24561403508771928, 0.2309941520467836, 0.2046783625730994;
    ( 7, 3 ) 0.3226205191594561, 0.18046971569839307, 0.14215080346106304, 0.3547589616810878;
    ( 8, 0 ) 0.7736204576043069, 0.17039030955585463, 0.02180349932705249, 0.034185733512786004;
    ( 8, 1 ) 0.5375894988066826, 0.32100238663484487, 0.06205250596658711, 0.07935560859188544;
    ( 8, 2 ) 0.3259109311740891, 0.291497975708502, 0.20445344129554655, 0.17813765182186234;
    ( 8, 3 ) 0.32404828226555243, 0.17734447539461468, 0.14113277623026926, 0.3574744661095636;
    ( 9, 0 ) 0.8054267161410018, 0.14633580705009278, 0.021567717996289426, 0.026669758812615955;
    ( 9, 1 ) 0.5798816568047337, 0.31015779092702167, 0.05473372781065089, 0.055226824457593686;
    ( 9, 2 ) 0.4254937163375224, 0.26929982046678635, 0.15978456014362658, 0.14542190305206462;
    ( 9, 3 ) 0.41475409836065574, 0.19508196721311474, 0.10983606557377049, 0.28032786885245903;

}
probability ( NEW_BMI_class ) {
    table 0.009459985146939208, 0.259981610496163, 0.34609399865615165, 0.2132651978639884, 0.1711992078367578 ;
}
probability ( PhyHlth_Class | DiffWalk, GenHlth ) {
    ( 0, 1 ) 0.8469004383218535, 0.13353162179085787, 0.008766437069505322, 0.010801502817783344;
    ( 0, 2 ) 0.7626238469422617, 0.20635462931329004, 0.01708233686368295, 0.013939186880765288;
    ( 0, 3 ) 0.6533143554290362, 0.2787040802494239, 0.03368578012742307, 0.03429578419411685;
    ( 0, 4 ) 0.39608711701734955, 0.3399778516057586, 0.11000369139904023, 0.1539313399778516;
    ( 0, 5 ) 0.1303939962476548, 0.1772983114446529, 0.14915572232645402, 0.5431519699812383;
    ( 1, 1 ) 0.584, 0.216, 0.056, 0.144;
    ( 1, 2 ) 0.549512987012987, 0.26704545454545453, 0.06412337662337662, 0.11931818181818182;
    ( 1, 3 ) 0.38910207214121256, 0.36914811972371453, 0.09925812228191354, 0.14249168585315938;
    ( 1, 4 ) 0.1757886735081718, 0.2871531736982136, 0.18757126567844926, 0.34948688711516535;
    ( 1, 5 ) 0.038461538461538464, 0.10054945054945055, 0.13489010989010988, 0.7260989010989011;

}
probability ( PhysActivity | DiffWalk, GenHlth, HighBP ) {
    ( 0, 1, 0 ) 0.11134020618556702, 0.8886597938144329;
    ( 0, 1, 1 ) 0.1540962288686606, 0.8459037711313394;
    ( 0, 2, 0 ) 0.15190622780014207, 0.8480937721998579;
    ( 0, 2, 1 ) 0.19873969946679593, 0.8012603005332041;
    ( 0, 3, 0 ) 0.23956115932536434, 0.7604388406746356;
    ( 0, 3, 1 ) 0.27547126170926334, 0.7245287382907367;
    ( 0, 4, 0 ) 0.29950186799501866, 0.7004981320049813;
    ( 0, 4, 1 ) 0.3638509968520462, 0.6361490031479539;
    ( 0, 5, 0 ) 0.42402826855123676, 0.5759717314487632;
    ( 0, 5, 1 ) 0.39846743295019155, 0.6015325670498084;
    ( 1, 1, 0 ) 0.3, 0.7;
    ( 1, 1, 1 ) 0.4666666666666667, 0.5333333333333333;
    ( 1, 2, 0 ) 0.36739659367396593, 0.6326034063260341;
    ( 1, 2, 1 ) 0.4287454323995128, 0.5712545676004872;
    ( 1, 3, 0 ) 0.43280632411067194, 0.567193675889328;
    ( 1, 3, 1 ) 0.4590956161546427, 0.5409043838453572;
    ( 1, 4, 0 ) 0.5285592497868713, 0.47144075021312876;
    ( 1, 4, 1 ) 0.5191978478845684, 0.48080215211543165;
    ( 1, 5, 0 ) 0.5952712100139083, 0.4047287899860918;
    ( 1, 5, 1 ) 0.6196508045190003, 0.38034919548099966;

}
probability ( Stroke | DiffWalk, GenHlth, HeartDiseaseorAttack, HighBP ) {
    ( 0, 1, 0, 0 ) 0.9962406015037594, 0.0037593984962406013;
    ( 0, 1, 0, 1 ) 0.9689922480620154, 0.031007751937984496;
    ( 0, 1, 1, 0 ) 0.9516129032258065, 0.04838709677419355;
    ( 0, 1, 1, 1 ) 0.9159663865546218, 0.08403361344537816;
    ( 0, 2, 0, 0 ) 0.9892630551488532, 0.010736944851146901;
    ( 0, 2, 0, 1 ) 0.9725708139117963, 0.027429186088203657;
    ( 0, 2, 1, 0 ) 0.92, 0.08;
    ( 0, 2, 1, 1 ) 0.9067103109656302, 0.09328968903436989;
    ( 0, 3, 0, 0 ) 0.9831608489738642, 0.016839151026135767;
    ( 0, 3, 0, 1 ) 0.961496300356262, 0.03850369964373801;
    ( 0, 3, 1, 0 ) 0.8916256157635468, 0.10837438423645321;
    ( 0, 3, 1, 1 ) 0.8865826538176427, 0.1134173461823573;
    ( 0, 4, 0, 0 ) 0.9648876404494382, 0.0351123595505618;
    ( 0, 4, 0, 1 ) 0.9397053785542994, 0.06029462144570058;
    ( 0, 4, 1, 0 ) 0.8406593406593407, 0.15934065934065933;
    ( 0, 4, 1, 1 ) 0.8577827547592385, 0.1422172452407615;
    ( 0, 5, 0, 0 ) 0.9572649572649573, 0.042735042735042736;
    ( 0, 5, 0, 1 ) 0.9073359073359073, 0.09266409266409266;
    ( 0, 5, 1, 0 ) 0.7551020408163265, 0.24489795918367346;
    ( 0, 5, 1, 1 ) 0.769811320754717, 0.23018867924528302;
    ( 1, 1, 0, 0 ) 0.967391304347826, 0.03260869565217391;
    ( 1, 1, 0, 1 ) 0.9433962264150944, 0.05660377358490566;
    ( 1, 1, 1, 0 ) 0.75, 0.25;
    ( 1, 1, 1, 1 ) 0.75, 0.25;
    ( 1, 2, 0, 0 ) 0.9758713136729222, 0.024128686327077747;
    ( 1, 2, 0, 1 ) 0.9229607250755287, 0.0770392749244713;
    ( 1, 2, 1, 0 ) 0.8947368421052632, 0.10526315789473684;
    ( 1, 2, 1, 1 ) 0.8427672955974843, 0.15723270440251572;
    ( 1, 3, 0, 0 ) 0.9475484606613455, 0.052451539338654506;
    ( 1, 3, 0, 1 ) 0.9226943942133815, 0.07730560578661845;
    ( 1, 3, 1, 0 ) 0.7851851851851852, 0.21481481481481482;
    ( 1, 3, 1, 1 ) 0.781021897810219, 0.21897810218978103;
    ( 1, 4, 0, 0 ) 0.9322033898305084, 0.06779661016949153;
    ( 1, 4, 0, 1 ) 0.8882521489971347, 0.11174785100286533;
    ( 1, 4, 1, 0 ) 0.8209606986899564, 0.17903930131004367;
    ( 1, 4, 1, 1 ) 0.756360832690825, 0.243639167309175;
    ( 1, 5, 0, 0 ) 0.8815533980582524, 0.11844660194174757;
    ( 1, 5, 0, 1 ) 0.8559539052496798, 0.1440460947503201;
    ( 1, 5, 1, 0 ) 0.7892156862745098, 0.2107843137254902;
    ( 1, 5, 1, 1 ) 0.6718175128771156, 0.32818248712288445;

}
