network unknown {
}
variable Diabetes_binary {
    type discrete [ 2 ] { 0, 1 };
    property weight = None ;
}
variable DiffWalk {
    type discrete [ 2 ] { 0, 1 };
    property weight = None ;
}
variable Education {
    type discrete [ 6 ] { 1, 2, 3, 4, 5, 6 };
    property weight = None ;
}
variable GenHlth {
    type discrete [ 5 ] { 1, 2, 3, 4, 5 };
    property weight = None ;
}
variable HeartDiseaseorAttack {
    type discrete [ 2 ] { 0, 1 };
    property weight = None ;
}
variable HighBP {
    type discrete [ 2 ] { 0, 1 };
    property weight = None ;
}
variable HighChol {
    type discrete [ 2 ] { 0, 1 };
    property weight = None ;
}
variable HvyAlcoholConsump {
    type discrete [ 2 ] { 0, 1 };
    property weight = None ;
}
variable Income {
    type discrete [ 8 ] { 1, 2, 3, 4, 5, 6, 7, 8 };
    property weight = None ;
}
variable MetHlth_Class {
    type discrete [ 4 ] { 0, 1, 2, 3 };
    property weight = None ;
}
variable NEW_BMI_class {
    type discrete [ 5 ] { 0, 1, 2, 3, 4 };
    property weight = None ;
}
variable PhyHlth_Class {
    type discrete [ 4 ] { 0, 1, 2, 3 };
    property weight = None ;
}
variable Smoker {
    type discrete [ 2 ] { 0, 1 };
    property weight = None ;
}
variable Stroke {
    type discrete [ 2 ] { 0, 1 };
    property weight = None ;
}
probability ( Diabetes_binary | DiffWalk, GenHlth ) {
    ( 0, 1 ) 0.884974533106961, 0.11502546689303905;
    ( 0, 2 ) 0.7039147215585371, 0.296085278441463;
    ( 0, 3 ) 0.4534217126477965, 0.5465782873522035;
    ( 0, 4 ) 0.29939516129032256, 0.7006048387096774;
    ( 0, 5 ) 0.2839506172839506, 0.7160493827160493;
    ( 1, 1 ) 0.449438202247191, 0.550561797752809;
    ( 1, 2 ) 0.4503311258278146, 0.5496688741721855;
    ( 1, 3 ) 0.3142664872139973, 0.6857335127860027;
    ( 1, 4 ) 0.23308641975308642, 0.7669135802469136;
    ( 1, 5 ) 0.18961788031723142, 0.8103821196827685;

}
probability ( DiffWalk | GenHlth, PhyHlth_Class ) {
    ( 1, 0 ) 0.9769494850416871, 0.0230505149583129;
    ( 1, 1 ) 0.9349112426035503, 0.0650887573964497;
    ( 1, 2 ) 0.8275862068965517, 0.1724137931034483;
    ( 1, 3 ) 0.6153846153846154, 0.38461538461538464;
    ( 2, 0 ) 0.9403357531760436, 0.05966424682395644;
    ( 2, 1 ) 0.9025182778229082, 0.09748172217709179;
    ( 2, 2 ) 0.8412698412698413, 0.15873015873015872;
    ( 2, 3 ) 0.6124031007751938, 0.3875968992248062;
    ( 3, 0 ) 0.8651605231866826, 0.13483947681331748;
    ( 3, 1 ) 0.7447418738049714, 0.2552581261950287;
    ( 3, 2 ) 0.5926966292134831, 0.40730337078651685;
    ( 3, 3 ) 0.42168674698795183, 0.5783132530120482;
    ( 4, 0 ) 0.6963490650044524, 0.30365093499554763;
    ( 4, 1 ) 0.5383399209486166, 0.4616600790513834;
    ( 4, 2 ) 0.349025974025974, 0.650974025974026;
    ( 4, 3 ) 0.3044776119402985, 0.6955223880597015;
    ( 5, 0 ) 0.5631067961165048, 0.4368932038834951;
    ( 5, 1 ) 0.32242990654205606, 0.677570093457944;
    ( 5, 2 ) 0.23790322580645162, 0.7620967741935484;
    ( 5, 3 ) 0.1784841075794621, 0.8215158924205379;

}
probability ( Education | Income ) {
    ( 1 ) 0.007407407407407408, 0.11203703703703703, 0.15, 0.3851851851851852, 0.24166666666666667, 0.1037037037037037;
    ( 2 ) 0.003641660597232338, 0.07574654042243263, 0.1281864530225783, 0.39839766933721776, 0.2891478514202476, 0.10487982520029134;
    ( 3 ) 0.0011827321111768185, 0.056179775280898875, 0.10526315789473684, 0.43169722057953874, 0.27971614429331754, 0.12596096984033117;
    ( 4 ) 0.0015739769150052466, 0.030954879328436515, 0.08866736621196222, 0.40713536201469047, 0.3074501573976915, 0.16421825813221405;
    ( 5 ) 0.00125, 0.02125, 0.05416666666666667, 0.3670833333333333, 0.3308333333333333, 0.22541666666666665;
    ( 6 ) 0.0003287310979618672, 0.011505588428665352, 0.029585798816568046, 0.3063773833004602, 0.33694937541091385, 0.3152531229454306;
    ( 7 ) 0.000563856780377784, 0.004510854243022272, 0.013532562729066817, 0.23230899351564702, 0.31322244149985906, 0.43586129123202705;
    ( 8 ) 0.00016210082671421625, 0.00129680661371373, 0.0061598314151402175, 0.1238450316096612, 0.2386124169233263, 0.6299238126114444;

}
probability ( GenHlth | PhyHlth_Class ) {
    ( 0 ) 0.17166189594207779, 0.37110624684290283, 0.35401582758040073, 0.09454453611719145, 0.008671493517427176;
    ( 1 ) 0.06575875486381323, 0.23949416342412452, 0.40700389105058365, 0.24610894941634243, 0.041634241245136185;
    ( 2 ) 0.02109090909090909, 0.09163636363636364, 0.2589090909090909, 0.448, 0.18036363636363636;
    ( 3 ) 0.013854351687388987, 0.045825932504440496, 0.14742451154529307, 0.35701598579040855, 0.4358792184724689;

}
probability ( HeartDiseaseorAttack | Diabetes_binary, GenHlth, HighBP ) {
    ( 0, 1, 0 ) 0.9901277584204413, 0.009872241579558653;
    ( 0, 1, 1 ) 0.9528535980148883, 0.04714640198511166;
    ( 0, 2, 0 ) 0.9801762114537445, 0.019823788546255508;
    ( 0, 2, 1 ) 0.9198473282442748, 0.08015267175572519;
    ( 0, 3, 0 ) 0.947401377582968, 0.052598622417031934;
    ( 0, 3, 1 ) 0.8472519628836546, 0.15274803711634546;
    ( 0, 4, 0 ) 0.9042316258351893, 0.0957683741648107;
    ( 0, 4, 1 ) 0.7585089141004863, 0.24149108589951376;
    ( 0, 5, 0 ) 0.8428571428571429, 0.15714285714285714;
    ( 0, 5, 1 ) 0.6512605042016807, 0.3487394957983193;
    ( 1, 1, 0 ) 0.9122807017543859, 0.08771929824561403;
    ( 1, 1, 1 ) 0.8592233009708737, 0.1407766990291262;
    ( 1, 2, 0 ) 0.9168026101141925, 0.08319738988580751;
    ( 1, 2, 1 ) 0.8604651162790697, 0.13953488372093023;
    ( 1, 3, 0 ) 0.8814675446848542, 0.11853245531514581;
    ( 1, 3, 1 ) 0.7988027934818757, 0.20119720651812437;
    ( 1, 4, 0 ) 0.7947019867549668, 0.2052980132450331;
    ( 1, 4, 1 ) 0.7037195382642155, 0.29628046173578454;
    ( 1, 5, 0 ) 0.7333333333333333, 0.26666666666666666;
    ( 1, 5, 1 ) 0.5357751277683135, 0.46422487223168657;

}
probability ( HighBP | Diabetes_binary, DiffWalk, GenHlth ) {
    ( 0, 0, 1 ) 0.8148681055155875, 0.18513189448441247;
    ( 0, 0, 2 ) 0.6840731070496083, 0.31592689295039167;
    ( 0, 0, 3 ) 0.5519557487159226, 0.44804425128407743;
    ( 0, 0, 4 ) 0.4730639730639731, 0.5269360269360269;
    ( 0, 0, 5 ) 0.4260869565217391, 0.5739130434782609;
    ( 0, 1, 1 ) 0.575, 0.425;
    ( 0, 1, 2 ) 0.5098039215686274, 0.49019607843137253;
    ( 0, 1, 3 ) 0.4282655246252677, 0.5717344753747323;
    ( 0, 1, 4 ) 0.3559322033898305, 0.6440677966101694;
    ( 0, 1, 5 ) 0.34600760456273766, 0.6539923954372624;
    ( 1, 0, 1 ) 0.39114391143911437, 0.6088560885608856;
    ( 1, 0, 2 ) 0.3407821229050279, 0.659217877094972;
    ( 1, 0, 3 ) 0.28515240904621436, 0.7148475909537857;
    ( 1, 0, 4 ) 0.2381294964028777, 0.7618705035971223;
    ( 1, 0, 5 ) 0.20689655172413793, 0.7931034482758621;
    ( 1, 1, 1 ) 0.16326530612244897, 0.8367346938775511;
    ( 1, 1, 2 ) 0.2570281124497992, 0.7429718875502008;
    ( 1, 1, 3 ) 0.18940137389597644, 0.8105986261040236;
    ( 1, 1, 4 ) 0.17578879587894397, 0.824211204121056;
    ( 1, 1, 5 ) 0.1601423487544484, 0.8398576512455516;

}
probability ( HighChol | Diabetes_binary, HeartDiseaseorAttack, HighBP ) {
    ( 0, 0, 0 ) 0.7205240174672489, 0.2794759825327511;
    ( 0, 0, 1 ) 0.4766107678729038, 0.5233892321270962;
    ( 0, 1, 0 ) 0.5636363636363636, 0.43636363636363634;
    ( 0, 1, 1 ) 0.2543859649122807, 0.7456140350877193;
    ( 1, 0, 0 ) 0.4904825143868969, 0.5095174856131032;
    ( 1, 0, 1 ) 0.3079129407794837, 0.6920870592205163;
    ( 1, 1, 0 ) 0.4, 0.6;
    ( 1, 1, 1 ) 0.1930596285434995, 0.8069403714565004;

}
probability ( HvyAlcoholConsump | Diabetes_binary, Smoker ) {
    ( 0, 0 ) 0.9623985423223456, 0.037601457677654465;
    ( 0, 1 ) 0.9154250657318141, 0.0845749342681858;
    ( 1, 0 ) 0.9894117647058823, 0.010588235294117647;
    ( 1, 1 ) 0.9687670237879064, 0.0312329762120937;

}
probability ( Income | DiffWalk, GenHlth ) {
    ( 0, 1 ) 0.019100169779286927, 0.019949066213921902, 0.03438030560271647, 0.05178268251273345, 0.06833616298811546, 0.116723259762309, 0.1926994906621392, 0.4970288624787776;
    ( 0, 2 ) 0.013232861606322368, 0.02021687189854806, 0.03712552839551553, 0.054217974637015255, 0.09152729277706304, 0.14023157507811065, 0.20474177540893218, 0.4387061201984929;
    ( 0, 3 ) 0.03188821211035471, 0.04030813328556073, 0.06825510569688284, 0.08921533500537442, 0.1194912217843067, 0.16965245431744894, 0.18828376925833035, 0.29290576854174133;
    ( 0, 4 ) 0.07610887096774194, 0.08165322580645161, 0.10483870967741936, 0.12247983870967742, 0.1466733870967742, 0.13860887096774194, 0.14818548387096775, 0.1814516129032258;
    ( 0, 5 ) 0.11604938271604938, 0.1308641975308642, 0.1580246913580247, 0.1382716049382716, 0.1506172839506173, 0.09876543209876543, 0.10864197530864197, 0.09876543209876543;
    ( 1, 1 ) 0.12359550561797752, 0.0898876404494382, 0.12359550561797752, 0.1348314606741573, 0.1348314606741573, 0.1348314606741573, 0.10112359550561797, 0.15730337078651685;
    ( 1, 2 ) 0.04194260485651214, 0.0706401766004415, 0.09050772626931568, 0.10375275938189846, 0.16556291390728478, 0.16335540838852097, 0.15673289183222958, 0.20750551876379691;
    ( 1, 3 ) 0.06998654104979811, 0.11305518169582772, 0.13189771197846567, 0.10969044414535666, 0.14199192462987886, 0.17092866756393002, 0.1271870794078062, 0.13526244952893673;
    ( 1, 4 ) 0.12098765432098765, 0.1580246913580247, 0.13580246913580246, 0.134320987654321, 0.12790123456790123, 0.12691358024691357, 0.10666666666666667, 0.08938271604938272;
    ( 1, 5 ) 0.1499639509733237, 0.1788031723143475, 0.167267483777938, 0.14275414563806776, 0.11896178803172314, 0.10454217736121124, 0.07570295602018745, 0.06200432588320115;

}
probability ( MetHlth_Class | PhyHlth_Class ) {
    ( 0 ) 0.797861592860751, 0.15364539484761744, 0.021636639164842566, 0.026856373126789023;
    ( 1 ) 0.5859922178988327, 0.30719844357976656, 0.047665369649805445, 0.05914396887159533;
    ( 2 ) 0.4509090909090909, 0.2625454545454545, 0.15345454545454545, 0.1330909090909091;
    ( 3 ) 0.4483126110124334, 0.17584369449378331, 0.11012433392539965, 0.26571936056838363;

}
probability ( NEW_BMI_class | Diabetes_binary ) {
    ( 0 ) 0.018583152532779926, 0.5207999245354212, 0.4606169229317989, 0.0, 0.0;
    ( 1 ) 0.0, 0.0, 0.23795606674837372, 0.4200056566418403, 0.342038276609786;

}
probability ( PhyHlth_Class ) {
    table 0.5600716710675216, 0.24236137306676725, 0.06483402489626557, 0.1327329309694455 ;
}
probability ( Smoker | Education, HeartDiseaseorAttack ) {
    ( 1, 0 ) 0.7222222222222222, 0.2777777777777778;
    ( 1, 1 ) 0.5714285714285714, 0.42857142857142855;
    ( 2, 0 ) 0.5136612021857924, 0.48633879781420764;
    ( 2, 1 ) 0.34959349593495936, 0.6504065040650406;
    ( 3, 0 ) 0.42988204456094364, 0.5701179554390564;
    ( 3, 1 ) 0.2982456140350877, 0.7017543859649122;
    ( 4, 0 ) 0.47152290548906317, 0.5284770945109368;
    ( 4, 1 ) 0.3466796875, 0.6533203125;
    ( 5, 0 ) 0.5102395672333848, 0.48976043276661513;
    ( 5, 1 ) 0.33085896076352067, 0.6691410392364793;
    ( 6, 0 ) 0.6605155243116578, 0.3394844756883421;
    ( 6, 1 ) 0.4401805869074492, 0.5598194130925508;

}
probability ( Stroke | DiffWalk, HeartDiseaseorAttack, HighBP ) {
    ( 0, 0, 0 ) 0.9896189224704336, 0.01038107752956636;
    ( 0, 0, 1 ) 0.9577141106174353, 0.04228588938256473;
    ( 0, 1, 0 ) 0.8892045454545454, 0.11079545454545454;
    ( 0, 1, 1 ) 0.8663017982799062, 0.13369820172009383;
    ( 1, 0, 0 ) 0.9264844486333648, 0.07351555136663525;
    ( 1, 0, 1 ) 0.9053233297606288, 0.09467667023937121;
    ( 1, 1, 0 ) 0.8065843621399177, 0.1934156378600823;
    ( 1, 1, 1 ) 0.7202692595362753, 0.27973074046372476;

}
