network unknown {
}
variable Diabetes_binary {
    type discrete [ 2 ] { 0, 1 };
    property weight = None ;
}
variable DiffWalk {
    type discrete [ 2 ] { 0, 1 };
    property weight = None ;
}
variable Education {
    type discrete [ 6 ] { 1, 2, 3, 4, 5, 6 };
    property weight = None ;
}
variable HeartDiseaseorAttack {
    type discrete [ 2 ] { 0, 1 };
    property weight = None ;
}
variable HighBP {
    type discrete [ 2 ] { 0, 1 };
    property weight = None ;
}
variable HighChol {
    type discrete [ 2 ] { 0, 1 };
    property weight = None ;
}
variable Income {
    type discrete [ 8 ] { 1, 2, 3, 4, 5, 6, 7, 8 };
    property weight = None ;
}
variable MetHlth_Class {
    type discrete [ 4 ] { 0, 1, 2, 3 };
    property weight = None ;
}
variable NEW_BMI_class {
    type discrete [ 5 ] { 0, 1, 2, 3, 4 };
    property weight = None ;
}
variable PhyHlth_Class {
    type discrete [ 4 ] { 0, 1, 2, 3 };
    property weight = None ;
}
variable Smoker {
    type discrete [ 2 ] { 0, 1 };
    property weight = None ;
}
variable Stroke {
    type discrete [ 2 ] { 0, 1 };
    property weight = None ;
}
probability ( Diabetes_binary | DiffWalk, NEW_BMI_class ) {
    ( 0, 0 ) 1.0, 0.0;
    ( 0, 1 ) 1.0, 0.0;
    ( 0, 2 ) 0.7291773646913834, 0.2708226353086166;
    ( 0, 3 ) 0.0, 1.0;
    ( 0, 4 ) 0.0, 1.0;
    ( 1, 0 ) 1.0, 0.0;
    ( 1, 1 ) 1.0, 0.0;
    ( 1, 2 ) 0.4026666666666667, 0.5973333333333334;
    ( 1, 3 ) 0.0, 1.0;
    ( 1, 4 ) 0.0, 1.0;

}
probability ( DiffWalk | Income, NEW_BMI_class ) {
    ( 1, 0 ) 0.6153846153846154, 0.38461538461538464;
    ( 1, 1 ) 0.6424050632911392, 0.3575949367088608;
    ( 1, 2 ) 0.5232974910394266, 0.4767025089605735;
    ( 1, 3 ) 0.3267543859649123, 0.6732456140350878;
    ( 1, 4 ) 0.390625, 0.609375;
    ( 2, 0 ) 0.6428571428571429, 0.35714285714285715;
    ( 2, 1 ) 0.5629820051413882, 0.4370179948586118;
    ( 2, 2 ) 0.481371087928465, 0.518628912071535;
    ( 2, 3 ) 0.38778625954198476, 0.6122137404580152;
    ( 2, 4 ) 0.37592592592592594, 0.6240740740740741;
    ( 3, 0 ) 0.6818181818181818, 0.3181818181818182;
    ( 3, 1 ) 0.7174311926605504, 0.28256880733944956;
    ( 3, 2 ) 0.5979955456570156, 0.40200445434298443;
    ( 3, 3 ) 0.4530386740331492, 0.5469613259668509;
    ( 3, 4 ) 0.4783950617283951, 0.5216049382716049;
    ( 4, 0 ) 0.7586206896551724, 0.2413793103448276;
    ( 4, 1 ) 0.7384370015948963, 0.26156299840510366;
    ( 4, 2 ) 0.6960227272727273, 0.3039772727272727;
    ( 4, 3 ) 0.5471236230110159, 0.4528763769889841;
    ( 4, 4 ) 0.5288184438040345, 0.4711815561959654;
    ( 5, 0 ) 0.9130434782608695, 0.08695652173913043;
    ( 5, 1 ) 0.8032967032967033, 0.1967032967032967;
    ( 5, 2 ) 0.7422289613343442, 0.2577710386656558;
    ( 5, 3 ) 0.6077457795431976, 0.39225422045680236;
    ( 5, 4 ) 0.6025477707006369, 0.3974522292993631;
    ( 6, 0 ) 0.851063829787234, 0.14893617021276595;
    ( 6, 1 ) 0.8621477532368621, 0.13785224676313784;
    ( 6, 2 ) 0.7928858290304074, 0.20711417096959264;
    ( 6, 3 ) 0.6901535682023487, 0.3098464317976513;
    ( 6, 4 ) 0.6673936750272628, 0.3326063249727372;
    ( 7, 0 ) 0.8727272727272727, 0.12727272727272726;
    ( 7, 1 ) 0.9058539529269765, 0.09414604707302354;
    ( 7, 2 ) 0.8488761358201817, 0.15112386417981827;
    ( 7, 3 ) 0.7594594594594595, 0.24054054054054055;
    ( 7, 4 ) 0.7400228050171037, 0.25997719498289623;
    ( 8, 0 ) 0.9609375, 0.0390625;
    ( 8, 1 ) 0.9477503628447025, 0.05224963715529753;
    ( 8, 2 ) 0.9225037257824144, 0.07749627421758569;
    ( 8, 3 ) 0.8333333333333334, 0.16666666666666666;
    ( 8, 4 ) 0.8209764918625678, 0.17902350813743217;

}
probability ( Education ) {
    table 0.0011599615232275222, 0.022972896508798732, 0.047699881174673234, 0.2759859672947434, 0.2846998245911843, 0.3674814689073728 ;
}
probability ( HeartDiseaseorAttack | Diabetes_binary, DiffWalk, PhyHlth_Class ) {
    ( 0, 0, 0 ) 0.9484974572353213, 0.05150254276467869;
    ( 0, 0, 1 ) 0.9372133027522935, 0.06278669724770643;
    ( 0, 0, 2 ) 0.8930131004366813, 0.10698689956331878;
    ( 0, 0, 3 ) 0.8622641509433963, 0.13773584905660377;
    ( 0, 1, 0 ) 0.8657817109144543, 0.13421828908554573;
    ( 0, 1, 1 ) 0.8316993464052288, 0.16830065359477125;
    ( 0, 1, 2 ) 0.8355263157894737, 0.16447368421052633;
    ( 0, 1, 3 ) 0.7739130434782608, 0.22608695652173913;
    ( 1, 0, 0 ) 0.8565217391304348, 0.14347826086956522;
    ( 1, 0, 1 ) 0.8139111434814276, 0.18608885651857246;
    ( 1, 0, 2 ) 0.8143607705779334, 0.18563922942206654;
    ( 1, 0, 3 ) 0.7555282555282555, 0.24447174447174447;
    ( 1, 1, 0 ) 0.7267683772538142, 0.27323162274618584;
    ( 1, 1, 1 ) 0.7124563445867288, 0.28754365541327126;
    ( 1, 1, 2 ) 0.6331923890063424, 0.3668076109936575;
    ( 1, 1, 3 ) 0.6141325922985311, 0.3858674077014688;

}
probability ( HighBP | Diabetes_binary, DiffWalk, HeartDiseaseorAttack, PhyHlth_Class ) {
    ( 0, 0, 0, 0 ) 0.6999415090660948, 0.30005849093390524;
    ( 0, 0, 0, 1 ) 0.660140715815234, 0.33985928418476596;
    ( 0, 0, 0, 2 ) 0.5403422982885085, 0.45965770171149145;
    ( 0, 0, 0, 3 ) 0.5470459518599562, 0.45295404814004375;
    ( 0, 0, 1, 0 ) 0.3249551166965889, 0.6750448833034112;
    ( 0, 0, 1, 1 ) 0.2831050228310502, 0.7168949771689498;
    ( 0, 0, 1, 2 ) 0.3469387755102041, 0.6530612244897959;
    ( 0, 0, 1, 3 ) 0.2328767123287671, 0.7671232876712328;
    ( 0, 1, 0, 0 ) 0.42759795570698467, 0.5724020442930153;
    ( 0, 1, 0, 1 ) 0.4086444007858546, 0.5913555992141454;
    ( 0, 1, 0, 2 ) 0.421259842519685, 0.5787401574803149;
    ( 0, 1, 0, 3 ) 0.4478330658105939, 0.5521669341894061;
    ( 0, 1, 1, 0 ) 0.26373626373626374, 0.7362637362637363;
    ( 0, 1, 1, 1 ) 0.21359223300970873, 0.7864077669902912;
    ( 0, 1, 1, 2 ) 0.22, 0.78;
    ( 0, 1, 1, 3 ) 0.2692307692307692, 0.7307692307692307;
    ( 1, 0, 0, 0 ) 0.3240270727580372, 0.6759729272419628;
    ( 1, 0, 0, 1 ) 0.3100671140939597, 0.6899328859060403;
    ( 1, 0, 0, 2 ) 0.2645161290322581, 0.7354838709677419;
    ( 1, 0, 0, 3 ) 0.2634146341463415, 0.7365853658536585;
    ( 1, 0, 1, 0 ) 0.2080808080808081, 0.7919191919191919;
    ( 1, 0, 1, 1 ) 0.16046966731898238, 0.8395303326810176;
    ( 1, 0, 1, 2 ) 0.18867924528301888, 0.8113207547169812;
    ( 1, 0, 1, 3 ) 0.17587939698492464, 0.8241206030150754;
    ( 1, 1, 0, 0 ) 0.19083969465648856, 0.8091603053435115;
    ( 1, 1, 0, 1 ) 0.2107843137254902, 0.7892156862745098;
    ( 1, 1, 0, 2 ) 0.1636060100166945, 0.8363939899833055;
    ( 1, 1, 0, 3 ) 0.22301228183581126, 0.7769877181641888;
    ( 1, 1, 1, 0 ) 0.14720812182741116, 0.8527918781725888;
    ( 1, 1, 1, 1 ) 0.1194331983805668, 0.8805668016194332;
    ( 1, 1, 1, 2 ) 0.09221902017291066, 0.9077809798270894;
    ( 1, 1, 1, 3 ) 0.13271604938271606, 0.8672839506172839;

}
probability ( HighChol | Diabetes_binary, DiffWalk, HeartDiseaseorAttack, HighBP ) {
    ( 0, 0, 0, 0 ) 0.7315730451626058, 0.2684269548373942;
    ( 0, 0, 0, 1 ) 0.4906195462478185, 0.5093804537521816;
    ( 0, 0, 1, 0 ) 0.555956678700361, 0.44404332129963897;
    ( 0, 0, 1, 1 ) 0.249597423510467, 0.750402576489533;
    ( 0, 1, 0, 0 ) 0.6224852071005917, 0.37751479289940826;
    ( 0, 1, 0, 1 ) 0.44680851063829785, 0.5531914893617021;
    ( 0, 1, 1, 0 ) 0.5, 0.5;
    ( 0, 1, 1, 1 ) 0.2875, 0.7125;
    ( 1, 0, 0, 0 ) 0.506049083995852, 0.4939509160041479;
    ( 1, 0, 0, 1 ) 0.3297536323436513, 0.6702463676563487;
    ( 1, 0, 1, 0 ) 0.3877551020408163, 0.6122448979591837;
    ( 1, 0, 1, 1 ) 0.21052631578947367, 0.7894736842105263;
    ( 1, 1, 0, 0 ) 0.4406215316315205, 0.5593784683684795;
    ( 1, 1, 0, 1 ) 0.2641455786181405, 0.7358544213818595;
    ( 1, 1, 1, 0 ) 0.4460431654676259, 0.5539568345323741;
    ( 1, 1, 1, 1 ) 0.18662519440124417, 0.8133748055987559;

}
probability ( Income | Education ) {
    ( 1 ) 0.2682926829268293, 0.14634146341463414, 0.21951219512195122, 0.0975609756097561, 0.12195121951219512, 0.04878048780487805, 0.04878048780487805, 0.04878048780487805;
    ( 2 ) 0.2315270935960591, 0.2204433497536946, 0.19950738916256158, 0.12315270935960591, 0.10591133004926108, 0.06896551724137931, 0.029556650246305417, 0.020935960591133004;
    ( 3 ) 0.17141162514827996, 0.16903914590747332, 0.18623962040332148, 0.17022538552787664, 0.1298932384341637, 0.08600237247924081, 0.046263345195729534, 0.04092526690391459;
    ( 4 ) 0.07063044592516658, 0.09451563300871348, 0.12352639671963096, 0.13593029215786775, 0.14823167606355714, 0.16227575602255254, 0.13634033828805742, 0.12854946181445412;
    ( 5 ) 0.04342641359435556, 0.06220808903905396, 0.08029414687468946, 0.09808208287786942, 0.13266421544271093, 0.16724634800755242, 0.17966809102653283, 0.2364106131372354;
    ( 6 ) 0.013626915081992454, 0.019324043421356532, 0.026099006851951653, 0.03995688659635076, 0.07336977442451305, 0.1276464700900762, 0.19616598660404957, 0.5038109169297098;

}
probability ( MetHlth_Class | Income, PhyHlth_Class ) {
    ( 1, 0 ) 0.7574257425742574, 0.14521452145214522, 0.036303630363036306, 0.06105610561056106;
    ( 1, 1 ) 0.4393203883495146, 0.3131067961165049, 0.09223300970873786, 0.1553398058252427;
    ( 1, 2 ) 0.32547169811320753, 0.2358490566037736, 0.18396226415094338, 0.25471698113207547;
    ( 1, 3 ) 0.2994652406417112, 0.14260249554367202, 0.14616755793226383, 0.4117647058823529;
    ( 2, 0 ) 0.7907268170426065, 0.13659147869674185, 0.03132832080200501, 0.041353383458646614;
    ( 2, 1 ) 0.447841726618705, 0.34532374100719426, 0.09532374100719425, 0.11151079136690648;
    ( 2, 2 ) 0.3333333333333333, 0.25757575757575757, 0.17803030303030304, 0.23106060606060605;
    ( 2, 3 ) 0.3579109062980031, 0.19969278033794163, 0.1259600614439324, 0.31643625192012287;
    ( 3, 0 ) 0.7925619834710744, 0.13636363636363635, 0.03636363636363636, 0.03471074380165289;
    ( 3, 1 ) 0.5097493036211699, 0.32590529247910865, 0.07520891364902507, 0.08913649025069638;
    ( 3, 2 ) 0.4083044982698962, 0.2837370242214533, 0.14878892733564014, 0.15916955017301038;
    ( 3, 3 ) 0.4112903225806452, 0.16129032258064516, 0.1403225806451613, 0.2870967741935484;
    ( 4, 0 ) 0.7810026385224275, 0.15105540897097625, 0.027704485488126648, 0.040237467018469655;
    ( 4, 1 ) 0.5472392638036809, 0.301840490797546, 0.06134969325153374, 0.08957055214723926;
    ( 4, 2 ) 0.3717105263157895, 0.29276315789473684, 0.19736842105263158, 0.13815789473684212;
    ( 4, 3 ) 0.42857142857142855, 0.18197278911564627, 0.11394557823129252, 0.2755102040816326;
    ( 5, 0 ) 0.7942936033133916, 0.15278416935112749, 0.024390243902439025, 0.028531983433041877;
    ( 5, 1 ) 0.5587044534412956, 0.3269230769230769, 0.057692307692307696, 0.05668016194331984;
    ( 5, 2 ) 0.4387755102040816, 0.2653061224489796, 0.1598639455782313, 0.1360544217687075;
    ( 5, 3 ) 0.5161290322580645, 0.18845500848896435, 0.0967741935483871, 0.19864176570458403;
    ( 6, 0 ) 0.8121657754010695, 0.1447192513368984, 0.019385026737967916, 0.023729946524064172;
    ( 6, 1 ) 0.6165473349244233, 0.2863961813842482, 0.056483691328560064, 0.0405727923627685;
    ( 6, 2 ) 0.5344262295081967, 0.2721311475409836, 0.11475409836065574, 0.07868852459016394;
    ( 6, 3 ) 0.506108202443281, 0.20593368237347295, 0.06631762652705062, 0.22164048865619546;
    ( 7, 0 ) 0.8029666946543521, 0.15169325496781416, 0.02211027148054856, 0.023229778897285194;
    ( 7, 1 ) 0.6230982019363762, 0.2994467496542185, 0.04495159059474412, 0.03250345781466114;
    ( 7, 2 ) 0.5149253731343284, 0.27238805970149255, 0.11940298507462686, 0.09328358208955224;
    ( 7, 3 ) 0.5049701789264414, 0.18886679920477137, 0.07157057654075547, 0.2345924453280318;
    ( 8, 0 ) 0.8080953064446678, 0.15731304722262093, 0.017367590067460886, 0.017224056265250465;
    ( 8, 1 ) 0.6399662731871838, 0.29131534569983136, 0.0366779089376054, 0.03204047217537943;
    ( 8, 2 ) 0.5451895043731778, 0.239067055393586, 0.16034985422740525, 0.05539358600583091;
    ( 8, 3 ) 0.5368782161234992, 0.18181818181818182, 0.09605488850771869, 0.18524871355060035;

}
probability ( NEW_BMI_class | Income ) {
    ( 1 ) 0.0072585147962032385, 0.17643774427694026, 0.31155778894472363, 0.254606365159129, 0.2501395868230039;
    ( 2 ) 0.00617011899515205, 0.17144116350815336, 0.2957249889819304, 0.2886734244160423, 0.2379903040987219;
    ( 3 ) 0.007754670426506873, 0.19210433556573844, 0.3165315474092351, 0.25519915403595345, 0.2284102925625661;
    ( 4 ) 0.008997828110456097, 0.1945392491467577, 0.32764505119453924, 0.2534905367669873, 0.2153273347812597;
    ( 5 ) 0.0056874381800197825, 0.22502472799208703, 0.326162215628091, 0.2490108803165183, 0.19411473788328387;
    ( 6 ) 0.009167154281256095, 0.25609518236785644, 0.3399648917495611, 0.21591574019894674, 0.17885703140237955;
    ( 7 ) 0.009499136442141624, 0.28618307426597583, 0.361139896373057, 0.19170984455958548, 0.15146804835924008;
    ( 8 ) 0.012469556746225036, 0.33560642961519727, 0.39220652703360936, 0.15197272284461763, 0.1077447637603507;

}
probability ( PhyHlth_Class | Diabetes_binary, DiffWalk, Income ) {
    ( 0, 0, 1 ) 0.6201550387596899, 0.22997416020671835, 0.06459948320413436, 0.08527131782945736;
    ( 0, 0, 2 ) 0.6146341463414634, 0.24390243902439024, 0.05121951219512195, 0.09024390243902439;
    ( 0, 0, 3 ) 0.6387362637362637, 0.25, 0.04532967032967033, 0.06593406593406594;
    ( 0, 0, 4 ) 0.6601036269430052, 0.23937823834196892, 0.058031088082901555, 0.04248704663212435;
    ( 0, 0, 5 ) 0.6895585143658024, 0.23545900490539592, 0.0322354590049054, 0.042747021723896286;
    ( 0, 0, 6 ) 0.7112029384756657, 0.22038567493112948, 0.03305785123966942, 0.03535353535353535;
    ( 0, 0, 7 ) 0.7066057624736473, 0.2392832044975404, 0.023893183415319746, 0.030217849613492623;
    ( 0, 0, 8 ) 0.7365354330708661, 0.21874015748031497, 0.0215748031496063, 0.0231496062992126;
    ( 0, 1, 1 ) 0.19545454545454546, 0.17272727272727273, 0.16818181818181818, 0.4636363636363636;
    ( 0, 1, 2 ) 0.21518987341772153, 0.27848101265822783, 0.1360759493670886, 0.370253164556962;
    ( 0, 1, 3 ) 0.23943661971830985, 0.2605633802816901, 0.14788732394366197, 0.352112676056338;
    ( 0, 1, 4 ) 0.2635135135135135, 0.22297297297297297, 0.14189189189189189, 0.3716216216216216;
    ( 0, 1, 5 ) 0.33532934131736525, 0.2215568862275449, 0.11377245508982035, 0.32934131736526945;
    ( 0, 1, 6 ) 0.3474320241691843, 0.2809667673716012, 0.1027190332326284, 0.2688821752265861;
    ( 0, 1, 7 ) 0.2708333333333333, 0.3090277777777778, 0.1111111111111111, 0.3090277777777778;
    ( 0, 1, 8 ) 0.3515151515151515, 0.2727272727272727, 0.10909090909090909, 0.26666666666666666;
    ( 1, 0, 1 ) 0.5, 0.2636363636363636, 0.07045454545454545, 0.16590909090909092;
    ( 1, 0, 2 ) 0.5050167224080268, 0.2692307692307692, 0.09531772575250837, 0.13043478260869565;
    ( 1, 0, 3 ) 0.5533411488862837, 0.2661195779601407, 0.06799531066822978, 0.11254396248534584;
    ( 1, 0, 4 ) 0.5790458372310571, 0.2675397567820393, 0.05986903648269411, 0.09354536950420954;
    ( 1, 0, 5 ) 0.6198704103671706, 0.24694024478041757, 0.058315334773218146, 0.07487401007919367;
    ( 1, 0, 6 ) 0.6375570776255708, 0.24885844748858446, 0.04965753424657534, 0.0639269406392694;
    ( 1, 0, 7 ) 0.6609137055837564, 0.24263959390862944, 0.04517766497461929, 0.051269035532994923;
    ( 1, 0, 8 ) 0.6780405405405405, 0.23614864864864865, 0.03513513513513514, 0.05067567567567568;
    ( 1, 1, 1 ) 0.13844086021505375, 0.2271505376344086, 0.15994623655913978, 0.47446236559139787;
    ( 1, 1, 2 ) 0.18624338624338624, 0.21904761904761905, 0.15132275132275133, 0.4433862433862434;
    ( 1, 1, 3 ) 0.2109053497942387, 0.2417695473251029, 0.16049382716049382, 0.3868312757201646;
    ( 1, 1, 4 ) 0.2038073908174692, 0.2597984322508399, 0.1590145576707727, 0.37737961926091823;
    ( 1, 1, 5 ) 0.24161073825503357, 0.26286353467561524, 0.14429530201342283, 0.3512304250559284;
    ( 1, 1, 6 ) 0.24364896073903003, 0.2863741339491917, 0.12933025404157045, 0.3406466512702079;
    ( 1, 1, 7 ) 0.2653061224489796, 0.2886297376093295, 0.1151603498542274, 0.33090379008746357;
    ( 1, 1, 8 ) 0.2672, 0.3104, 0.1056, 0.3168;

}
probability ( Smoker | DiffWalk, Education, HeartDiseaseorAttack, HighBP ) {
    ( 0, 1, 0, 0 ) 1.0, 0.0;
    ( 0, 1, 0, 1 ) 0.4666666666666667, 0.5333333333333333;
    ( 0, 1, 1, 0 ) 0.5, 0.5;
    ( 0, 1, 1, 1 ) 0.0, 1.0;
    ( 0, 2, 0, 0 ) 0.5723684210526315, 0.4276315789473684;
    ( 0, 2, 0, 1 ) 0.5845410628019324, 0.41545893719806765;
    ( 0, 2, 1, 0 ) 0.7, 0.3;
    ( 0, 2, 1, 1 ) 0.3620689655172414, 0.6379310344827587;
    ( 0, 3, 0, 0 ) 0.4634146341463415, 0.5365853658536586;
    ( 0, 3, 0, 1 ) 0.4340909090909091, 0.5659090909090909;
    ( 0, 3, 1, 0 ) 0.34782608695652173, 0.6521739130434783;
    ( 0, 3, 1, 1 ) 0.2545454545454545, 0.7454545454545455;
    ( 0, 4, 0, 0 ) 0.5082614942528736, 0.49173850574712646;
    ( 0, 4, 0, 1 ) 0.48869963969865704, 0.511300360301343;
    ( 0, 4, 1, 0 ) 0.3539325842696629, 0.6460674157303371;
    ( 0, 4, 1, 1 ) 0.35284552845528455, 0.6471544715447154;
    ( 0, 5, 0, 0 ) 0.5619763074255996, 0.43802369257440044;
    ( 0, 5, 0, 1 ) 0.5081221572449642, 0.4918778427550357;
    ( 0, 5, 1, 0 ) 0.3229166666666667, 0.6770833333333334;
    ( 0, 5, 1, 1 ) 0.3640939597315436, 0.6359060402684564;
    ( 0, 6, 0, 0 ) 0.6972692243256827, 0.30273077567431733;
    ( 0, 6, 0, 1 ) 0.6194518554450643, 0.38054814455493574;
    ( 0, 6, 1, 0 ) 0.4976958525345622, 0.5023041474654378;
    ( 0, 6, 1, 1 ) 0.4474431818181818, 0.5525568181818182;
    ( 1, 1, 0, 0 ) 0.75, 0.25;
    ( 1, 1, 0, 1 ) 0.6666666666666666, 0.3333333333333333;
    ( 1, 1, 1, 0 ) 0.0, 1.0;
    ( 1, 1, 1, 1 ) 0.5555555555555556, 0.4444444444444444;
    ( 1, 2, 0, 0 ) 0.3269230769230769, 0.6730769230769231;
    ( 1, 2, 0, 1 ) 0.45789473684210524, 0.5421052631578948;
    ( 1, 2, 1, 0 ) 0.48148148148148145, 0.5185185185185185;
    ( 1, 2, 1, 1 ) 0.3103448275862069, 0.6896551724137931;
    ( 1, 3, 0, 0 ) 0.3435114503816794, 0.6564885496183206;
    ( 1, 3, 0, 1 ) 0.36515513126491644, 0.6348448687350835;
    ( 1, 3, 1, 0 ) 0.21212121212121213, 0.7878787878787878;
    ( 1, 3, 1, 1 ) 0.28217821782178215, 0.7178217821782178;
    ( 1, 4, 0, 0 ) 0.38030560271646857, 0.6196943972835314;
    ( 1, 4, 0, 1 ) 0.43486238532110094, 0.5651376146788991;
    ( 1, 4, 1, 0 ) 0.3458646616541353, 0.6541353383458647;
    ( 1, 4, 1, 1 ) 0.3372395833333333, 0.6627604166666666;
    ( 1, 5, 0, 0 ) 0.39114391143911437, 0.6088560885608856;
    ( 1, 5, 0, 1 ) 0.4434907010014306, 0.5565092989985694;
    ( 1, 5, 1, 0 ) 0.34, 0.66;
    ( 1, 5, 1, 1 ) 0.3146551724137931, 0.6853448275862069;
    ( 1, 6, 0, 0 ) 0.602803738317757, 0.397196261682243;
    ( 1, 6, 0, 1 ) 0.546, 0.454;
    ( 1, 6, 1, 0 ) 0.4222222222222222, 0.5777777777777777;
    ( 1, 6, 1, 1 ) 0.4279475982532751, 0.5720524017467249;

}
probability ( Stroke | Diabetes_binary, DiffWalk, HeartDiseaseorAttack, HighBP ) {
    ( 0, 0, 0, 0 ) 0.9915383831175452, 0.008461616882454889;
    ( 0, 0, 0, 1 ) 0.9666230366492147, 0.03337696335078534;
    ( 0, 0, 1, 0 ) 0.9025270758122743, 0.09747292418772563;
    ( 0, 0, 1, 1 ) 0.8921095008051529, 0.10789049919484701;
    ( 0, 1, 0, 0 ) 0.9337278106508876, 0.06627218934911243;
    ( 0, 1, 0, 1 ) 0.9104609929078015, 0.08953900709219859;
    ( 0, 1, 1, 0 ) 0.8301886792452831, 0.16981132075471697;
    ( 0, 1, 1, 1 ) 0.753125, 0.246875;
    ( 1, 0, 0, 0 ) 0.9754580020739717, 0.024541997926028344;
    ( 1, 0, 0, 1 ) 0.9534112444725206, 0.04658875552747947;
    ( 1, 0, 1, 0 ) 0.8600583090379009, 0.13994169096209913;
    ( 1, 0, 1, 1 ) 0.859876965140123, 0.14012303485987695;
    ( 1, 1, 0, 0 ) 0.9234184239733629, 0.07658157602663707;
    ( 1, 1, 0, 1 ) 0.898777367074211, 0.10122263292578902;
    ( 1, 1, 1, 0 ) 0.7949640287769785, 0.20503597122302158;
    ( 1, 1, 1, 1 ) 0.7231726283048211, 0.27682737169517885;

}
